  22  96
   0  23.800   5.39   4.14   3.11   1.97   2.08   2.37   2.27   2.15   2.03   2.19   1.89   2.23   1.93   2.07   2.44   2.09   2.26   2.26   2.13   1.83   1.96   1.88   1.59   1.97   1.86   1.87   2.06   1.95   1.61   1.84   1.79   1.81   1.94   1.70   1.76   1.86   1.89   1.49   1.38   1.72   1.40   1.33   1.79   1.47   1.42   1.57   1.40   1.52   1.50   1.53   1.79   1.29   1.64   1.60   1.55   1.40   1.58   1.60   1.67   1.91   1.84   1.88   1.67   1.60   1.72   1.60   1.29   1.90   1.43   1.71   1.58   1.58   1.30   1.46   1.69   1.32   1.11   1.74   1.56   1.47   1.58   1.67   1.62   1.76   1.52   1.49   1.72   2.19   1.76   1.55   1.66   1.52   1.37   2.82   1.46  -0.44
   1  31.400   0.00   0.00   2.52   0.25   0.80   1.29   0.87   1.42   1.35   1.05   1.14   1.05   1.12   1.26   1.09   1.00   1.20   1.06   1.04   0.95   1.08   0.99   0.92   0.86   0.89   0.91   0.80   0.94   0.97   0.83   0.75   0.73   0.54   0.73   0.85   0.57   0.79   0.26   0.37   0.39   0.55   0.58   0.43   0.62   0.47   0.45   0.44   0.50   0.46   0.57   0.61   0.39   0.38   0.59   0.59   0.43   0.53   0.74   0.65   0.55   0.65   0.61   0.53   0.52   0.56   0.63   0.35   0.53   0.62   0.60   0.30   0.39   0.56   0.52   0.48   0.32   0.35   0.31   0.38   0.29   0.43   0.34   0.30   0.56   0.62   0.33   0.24   0.38   0.36   0.57   0.18   0.00   0.08   0.12   0.00   0.00
   2  50.300   0.00   0.00   0.00  -0.31  -0.26  -0.23  -0.02   0.39   0.43   0.88   0.95   0.83   1.10   1.24   1.29   1.59   1.57   1.58   1.74   1.82   1.71   1.93   1.89   2.03   1.87   2.14   2.10   2.32   1.94   2.18   2.13   2.42   2.17   2.46   2.51   2.55   2.43   2.27   2.26   2.40   2.54   2.55   2.64   2.54   2.77   2.56   2.65   2.67   2.62   2.73   2.63   2.66   2.72   2.65   2.47   2.71   2.55   2.52   2.58   2.69   2.57   2.60   2.41   2.33   2.60   2.54   2.36   2.58   2.21   2.66   2.38   2.42   2.24   2.33   2.31   2.10   2.00   2.22   2.16   2.01   2.09   2.00   1.83   1.88   1.69   1.52   1.26   1.29   0.88   0.59   0.48   0.18   0.00  -0.18  -0.46  -1.38
   3  51.760  -1.94  -1.05  -1.35  -1.31  -1.05  -0.94  -0.85  -0.70  -0.63  -0.47  -0.33  -0.26  -0.16  -0.14   0.11   0.31   0.34   0.34   0.49   0.40   0.64   0.54   0.67   0.79   0.76   0.78   0.79   0.78   0.88   1.01   0.99   1.13   1.09   1.22   1.31   1.23   1.20   1.09   1.15   1.28   1.31   1.18   1.22   1.20   1.24   1.25   1.40   1.25   1.45   1.42   1.50   1.30   1.32   1.32   1.37   1.18   1.30   1.31   1.30   1.36   1.31   1.19   1.26   1.24   1.26   1.18   1.27   1.12   1.26   1.09   1.10   0.99   1.04   0.99   0.95   0.84   0.80   0.81   0.72   0.65   0.50   0.52   0.32   0.18   0.09   0.01  -0.11  -0.29  -0.40  -0.66  -0.86  -0.92  -1.06   0.00  -2.53   0.00
   4  52.800   0.00   0.00   0.00   0.00  -0.81   0.00  -0.74  -0.80  -0.73  -0.64  -0.73  -0.63  -0.61  -0.55  -0.50  -0.46  -0.61  -0.33  -0.36  -0.42  -0.36  -0.33  -0.29  -0.27  -0.23  -0.21  -0.10  -0.19  -0.12  -0.11  -0.02   0.02   0.06   0.12   0.15   0.26   0.11   0.19   0.11   0.23   0.13   0.19   0.22   0.24   0.25   0.24   0.17   0.32   0.18   0.24   0.28   0.28   0.27   0.22   0.36   0.29   0.20   0.20   0.16   0.17   0.20   0.09   0.16   0.09   0.08   0.05   0.03  -0.01   0.03  -0.03  -0.11  -0.07  -0.14  -0.09  -0.10  -0.30  -0.32  -0.37  -0.39  -0.38  -0.59  -0.53  -0.63  -0.72  -0.79  -0.76  -0.83  -0.95  -0.89  -0.94  -1.06  -0.99  -1.02  -1.13  -1.34  -1.43
   5  53.596   0.00   0.00   0.00   0.04   0.10   0.08   0.02  -0.02   0.02  -0.04   0.01  -0.01  -0.05  -0.03   0.03  -0.05  -0.03  -0.08  -0.06  -0.03  -0.01   0.00  -0.05  -0.07  -0.06  -0.06  -0.10  -0.07   0.04  -0.03  -0.08  -0.10   0.05   0.09   0.01   0.07   0.09   0.01  -0.01  -0.02   0.02   0.06   0.00   0.05   0.07  -0.02   0.02  -0.01   0.05  -0.01  -0.03  -0.01   0.01   0.04   0.07   0.01   0.06   0.04   0.07  -0.02   0.02   0.03   0.03  -0.02  -0.03   0.00  -0.09  -0.08  -0.07  -0.08  -0.09  -0.07  -0.11  -0.08  -0.12  -0.17  -0.11  -0.18  -0.16  -0.16  -0.27  -0.23  -0.26  -0.25  -0.30  -0.28  -0.35  -0.35  -0.36  -0.38  -0.39  -0.42  -0.43  -0.50  -0.51  -0.70
   6  54.400   0.00  -0.01   0.11   0.11   0.07  -0.01   0.05   0.06   0.00   0.02   0.01   0.06   0.03   0.03   0.04   0.05   0.04   0.08   0.04   0.09   0.07   0.05   0.10   0.11   0.05   0.07   0.07   0.11   0.10   0.14   0.11   0.07   0.11   0.16   0.14   0.17   0.14   0.12   0.17   0.14   0.17   0.15   0.17   0.17   0.18   0.18   0.16   0.14   0.17   0.14   0.12   0.11   0.17   0.14   0.10   0.16   0.13   0.13   0.12   0.09   0.11   0.08   0.10   0.10   0.09   0.05   0.05   0.02   0.04  -0.03   0.00  -0.01  -0.01  -0.05  -0.04  -0.08  -0.09  -0.08  -0.13  -0.14  -0.12  -0.16  -0.18  -0.22  -0.22  -0.25  -0.29  -0.30  -0.32  -0.38  -0.40  -0.44  -0.44  -0.45  -0.55   0.00
   7  54.940  -0.21  -0.24   0.00  -0.17  -0.16  -0.19  -0.21  -0.22  -0.28  -0.24  -0.27  -0.25  -0.23  -0.24  -0.25  -0.24  -0.24  -0.27  -0.28  -0.27  -0.27  -0.29  -0.31  -0.26  -0.27  -0.27  -0.26  -0.26  -0.25  -0.27  -0.27  -0.22  -0.24  -0.28  -0.22  -0.28  -0.26  -0.27  -0.26  -0.20  -0.22  -0.25  -0.26  -0.27  -0.25  -0.27  -0.24  -0.27  -0.26  -0.25  -0.25  -0.24  -0.29  -0.26  -0.27  -0.26  -0.26  -0.29  -0.24  -0.28  -0.30  -0.34  -0.26  -0.32  -0.31  -0.32  -0.36  -0.35  -0.37  -0.40  -0.38  -0.39  -0.38  -0.39  -0.43  -0.43  -0.43  -0.48  -0.44  -0.47  -0.48  -0.48  -0.49  -0.49  -0.52  -0.55  -0.56  -0.55  -0.60  -0.61  -0.63  -0.57  -0.63  -0.57  -0.60  -0.60
   8  55.500  -0.49  -0.43  -0.33  -0.29  -0.30  -0.37  -0.41  -0.40  -0.43  -0.40  -0.43  -0.44  -0.41  -0.40  -0.40  -0.43  -0.41  -0.42  -0.40  -0.40  -0.41  -0.46  -0.40  -0.40  -0.40  -0.41  -0.42  -0.38  -0.47  -0.40  -0.43  -0.43  -0.44  -0.43  -0.35  -0.41  -0.38  -0.36  -0.40  -0.37  -0.38  -0.38  -0.38  -0.40  -0.39  -0.43  -0.39  -0.39  -0.36  -0.38  -0.42  -0.41  -0.45  -0.42  -0.39  -0.39  -0.43  -0.43  -0.38  -0.43  -0.44  -0.42  -0.45  -0.46  -0.46  -0.47  -0.49  -0.48  -0.51  -0.48  -0.51  -0.53  -0.54  -0.52  -0.55  -0.57  -0.56  -0.60  -0.58  -0.61  -0.63  -0.59  -0.60  -0.65  -0.66  -0.69  -0.65  -0.71  -0.70  -0.70  -0.74  -0.71  -0.70  -0.72  -0.66  -0.71
   9  57.290   0.35   0.67   0.44   0.51   0.53   0.42   0.44   0.36   0.49   0.39   0.42   0.42   0.42   0.42   0.42   0.44   0.40   0.43   0.39   0.46   0.46   0.39   0.43   0.39   0.41   0.45   0.45   0.44   0.37   0.43   0.45   0.45   0.48   0.45   0.40   0.46   0.46   0.44   0.46   0.44   0.42   0.51   0.46   0.45   0.46   0.44   0.52   0.46   0.44   0.49   0.46   0.50   0.43   0.44   0.45   0.52   0.49   0.46   0.51   0.40   0.39   0.47   0.40   0.40   0.41   0.39   0.40   0.35   0.37   0.40   0.38   0.37   0.37   0.36   0.33   0.36   0.36   0.33   0.36   0.38   0.34   0.34   0.37   0.30   0.34   0.26   0.32   0.31   0.27   0.24   0.23   0.19   0.25   0.35   0.40   0.27
  10  57.290   0.46   0.34   0.49   0.50   0.40   0.49   0.45   0.44   0.46   0.46   0.42   0.43   0.40   0.56   0.47   0.51   0.55   0.60   0.51   0.51   0.54   0.51   0.46   0.48   0.57   0.45   0.48   0.47   0.55   0.48   0.53   0.57   0.52   0.54   0.58   0.58   0.58   0.53   0.61   0.56   0.54   0.55   0.61   0.59   0.56   0.52   0.59   0.64   0.62   0.61   0.64   0.55   0.57   0.61   0.58   0.59   0.56   0.58   0.61   0.56   0.56   0.53   0.52   0.52   0.51   0.50   0.59   0.47   0.51   0.55   0.44   0.52   0.46   0.50   0.43   0.42   0.44   0.42   0.42   0.50   0.44   0.36   0.45   0.37   0.36   0.37   0.37   0.41   0.41   0.34   0.32   0.27   0.26   0.27   0.41   0.45
  11  57.290   0.77   0.57   0.59   0.63   0.68   0.49   0.51   0.63   0.58   0.56   0.58   0.65   0.70   0.71   0.70   0.66   0.76   0.72   0.70   0.66   0.68   0.74   0.79   0.80   0.73   0.72   0.73   0.75   0.71   0.70   0.75   0.75   0.82   0.69   0.81   0.80   0.76   0.79   0.74   0.78   0.75   0.83   0.75   0.81   0.81   0.72   0.70   0.80   0.81   0.73   0.80   0.75   0.83   0.80   0.75   0.76   0.79   0.84   0.76   0.76   0.76   0.75   0.77   0.77   0.77   0.85   0.78   0.74   0.67   0.72   0.72   0.79   0.72   0.69   0.70   0.67   0.71   0.69   0.66   0.73   0.75   0.66   0.60   0.59   0.65   0.61   0.63   0.60   0.67   0.53   0.48   0.64   0.62   0.45   0.57   0.59
  12  57.290   0.23   0.26   0.56   0.58   0.43   0.48   0.56   0.53   0.40   0.42   0.40   0.52   0.43   0.56   0.66   0.60   0.60   0.58   0.54   0.61   0.56   0.62   0.54   0.71   0.76   0.53   0.67   0.56   0.70   0.73   0.68   0.78   0.70   0.65   0.81   0.57   0.63   0.70   0.74   0.79   0.71   0.79   0.79   0.79   0.82   0.72   0.63   0.82   0.62   0.69   0.61   0.66   0.75   0.72   0.77   0.71   0.71   0.65   0.72   0.70   0.70   0.74   0.61   0.78   0.75   0.76   0.56   0.60   0.59   0.63   0.67   0.61   0.62   0.61   0.61   0.53   0.56   0.52   0.64   0.56   0.61   0.51   0.53   0.56   0.62   0.55   0.55   0.53   0.47   0.51   0.51   0.36   0.44   0.45   0.57   0.26
  13  57.290  -0.74  -0.70  -0.15  -0.23   0.13   0.16   0.36   0.23   0.13   0.11   0.18   0.34   0.40   0.43   0.37   0.34   0.25   0.43   0.33   0.44   0.49   0.55   0.45   0.56   0.60   0.61   0.48   0.54   0.54   0.41   0.44   0.58   0.46   0.58   0.57   0.51   0.45   0.49   0.59   0.51   0.51   0.42   0.60   0.48   0.54   0.41   0.45   0.60   0.70   0.62   0.53   0.50   0.54   0.52   0.43   0.41   0.49   0.47   0.56   0.34   0.48   0.40   0.54   0.47   0.45   0.32   0.48   0.33   0.49   0.49   0.44   0.43   0.40   0.34   0.46   0.39   0.35   0.27   0.28   0.31   0.37   0.37   0.35   0.15   0.38   0.27   0.18   0.23   0.30   0.15   0.21   0.31   0.08   0.11  -0.02  -0.24
  14  57.290  -0.76  -2.28  -1.16  -0.32  -0.69  -0.69  -0.54  -0.50  -0.16  -0.54  -0.13   0.14  -0.24  -0.04  -0.35  -0.01  -0.09  -0.09   0.08   0.00   0.02  -0.07  -0.03   0.10   0.12   0.02  -0.22  -0.15  -0.01   0.31   0.10   0.04   0.22  -0.01   0.02   0.20   0.10  -0.10   0.02   0.13  -0.04   0.13   0.17   0.29   0.05  -0.05   0.15   0.22   0.23   0.31   0.26  -0.06   0.29  -0.10   0.15   0.30  -0.05   0.34   0.14   0.06   0.04   0.12  -0.21  -0.14  -0.17  -0.04  -0.16  -0.07  -0.06  -0.05  -0.10  -0.12  -0.02  -0.18  -0.16  -0.26  -0.03   0.02   0.01  -0.18  -0.34  -0.19  -0.21  -0.46  -0.41  -0.32  -0.29  -0.34  -0.31  -0.66  -0.75  -0.96  -0.21  -0.58  -0.43  -0.39
  15  88.200   3.08   0.00   0.00   2.34   2.27   2.05   1.77   1.84   2.44   2.30   1.46   1.54   1.79   1.61   1.43   1.20   1.52   1.84   1.57   1.30   1.09   1.16   1.18   1.34   1.39   1.37   1.03   1.30   1.08   1.31   1.45   1.45   1.56   1.48   0.93   1.02   1.09   1.08   1.39   1.09   1.46   1.22   0.99   1.23   0.87   0.82   1.06   0.80   1.20   0.64   1.12   0.94   0.95   1.02   1.17   1.27   0.91   0.96   1.11   1.29   1.19   1.51   0.79   0.81   1.07   0.61   0.82   0.91   0.87   1.19   0.99   0.63   0.66   0.95   0.61   0.40   0.57   0.82   1.16   0.99   1.12   1.39   1.44   1.20   1.38   1.35   1.25   1.94   1.76   2.00   2.01   1.96   2.25   3.20   2.03  -0.14
  16 165.500  -2.23  -1.42  -1.26  -1.83  -1.50  -1.60  -1.05  -1.30  -1.20  -0.86  -1.01  -0.75  -0.76  -0.60  -0.71  -0.73  -0.55  -0.58  -0.46  -0.39  -0.47  -0.69  -0.28   0.12  -0.45  -0.35   0.19   0.03  -0.41  -0.07  -0.37  -0.05  -0.22  -0.29  -0.08   0.07  -0.24   0.08  -0.40  -0.49  -0.15  -0.24  -0.51  -0.26  -0.33  -0.42  -0.16  -0.13  -0.38  -0.20  -0.31  -0.23  -0.20  -0.18  -0.20  -0.35  -0.47  -0.28  -0.18  -0.16  -0.19  -0.15  -0.41  -0.24  -0.47  -0.48  -0.30  -0.44  -0.75  -0.61  -0.62  -0.44  -0.88  -0.80  -0.72  -0.47  -0.66  -0.76  -0.97  -0.78  -0.79  -0.83  -0.88  -1.01  -0.81  -1.17  -1.00  -1.32  -1.10  -1.14  -1.27  -1.37  -1.70  -1.75  -1.60  -2.28
  17 183.310  -1.76  -1.40  -1.35  -1.13  -1.39  -1.05  -1.02  -1.05  -1.22  -0.98  -1.08  -1.32  -1.07  -1.08  -1.17  -0.99  -1.33  -1.12  -1.15  -1.05  -0.94  -1.24  -1.22  -1.20  -1.03  -1.00  -0.91  -1.11  -0.98  -1.13  -0.74  -0.87  -1.10  -1.16  -0.68  -0.94  -0.93  -1.04  -0.99  -1.11  -0.94  -0.92  -1.13  -1.01  -0.98  -0.73  -0.93  -0.82  -0.80  -0.85  -0.79  -0.82  -1.07  -0.77  -0.80  -1.06  -0.89  -0.89  -1.15  -1.04  -0.95  -0.84  -1.19  -1.01  -1.07  -1.08  -1.20  -0.83  -0.95  -0.82  -1.22  -1.09  -0.98  -1.24  -0.90  -0.93  -0.97  -1.15  -1.03  -1.13  -1.42  -1.26  -1.24  -1.15  -1.14  -1.02  -1.38  -1.07  -1.06  -1.24  -1.24  -1.41  -1.70  -1.42  -1.64  -2.20
  18 183.310  -1.38  -0.98  -1.08  -1.08  -0.69  -0.87  -0.83  -0.76  -0.71  -0.62  -0.77  -0.88  -0.72  -0.72  -0.73  -0.53  -0.63  -0.87  -0.84  -0.77  -0.92  -0.85  -0.60  -0.71  -0.74  -0.81  -0.85  -0.62  -0.69  -0.69  -0.49  -0.67  -0.86  -0.54  -0.82  -0.53  -0.60  -0.75  -0.70  -0.56  -0.81  -0.64  -0.66  -0.93  -0.79  -0.59  -0.80  -0.66  -0.69  -0.59  -0.63  -0.81  -0.58  -0.54  -0.82  -0.70  -0.66  -0.83  -0.73  -0.60  -0.85  -0.57  -0.61  -0.82  -0.55  -0.60  -0.74  -0.77  -0.65  -0.59  -0.62  -0.82  -0.90  -0.85  -0.77  -0.62  -0.65  -0.69  -0.70  -0.94  -1.04  -0.92  -0.77  -0.93  -1.08  -0.76  -0.80  -0.77  -0.88  -0.78  -1.27  -1.09  -0.90  -1.32  -1.11  -1.31
  19 183.310  -0.48  -1.23  -1.46  -0.99  -1.23  -0.96  -0.84  -0.84  -0.63  -0.81  -0.68  -0.89  -0.76  -0.50  -0.53  -0.73  -0.70  -0.93  -0.65  -0.98  -0.74  -0.72  -0.72  -0.72  -0.78  -0.58  -0.91  -0.63  -0.65  -0.66  -0.75  -0.63  -0.70  -0.70  -0.79  -0.58  -0.74  -0.62  -0.86  -0.71  -0.72  -0.68  -0.72  -0.89  -0.45  -0.72  -0.68  -0.51  -0.46  -0.34  -0.59  -0.58  -0.56  -0.67  -0.55  -0.71  -0.87  -0.66  -0.80  -0.71  -0.73  -0.87  -0.58  -0.43  -0.79  -0.63  -0.80  -0.84  -0.83  -0.49  -0.68  -0.70  -0.61  -0.93  -0.84  -0.65  -0.69  -0.70  -0.92  -0.86  -0.76  -0.74  -0.73  -0.89  -0.74  -0.99  -0.66  -0.92  -0.66  -0.75  -1.10  -0.86  -1.14  -1.21  -1.12  -0.86
  20 183.310  -1.00  -0.81  -1.11  -0.55  -0.76  -1.12  -0.73  -0.46  -0.76  -0.35  -0.50  -0.66  -0.58  -0.78  -0.53  -0.61  -0.51  -0.54  -0.50  -0.59  -0.85  -0.52  -0.55  -0.68  -0.68  -0.95  -0.35  -0.53  -0.50  -0.49  -0.50  -0.56  -0.28  -0.33  -0.46  -0.54  -0.55  -0.43  -0.72  -0.64  -0.45  -0.43  -0.55  -0.38  -0.53  -0.24  -0.42  -0.40  -0.26  -0.46  -0.57  -0.53  -0.59  -0.60  -0.54  -0.57  -0.56  -0.45  -0.48  -0.63  -0.71  -0.42  -0.64  -0.62  -0.63  -0.45  -0.39  -0.65  -0.52  -0.53  -0.53  -0.37  -0.49  -0.53  -0.73  -0.49  -0.55  -0.40  -0.60  -0.62  -0.87  -0.68  -0.93  -0.72  -0.65  -0.58  -0.77  -0.58  -0.97  -0.99  -1.06  -0.89  -0.94  -0.96  -0.61  -1.35
  21 183.310   0.08  -0.62  -0.93  -0.05  -0.38  -0.17  -0.26  -0.19   0.20   0.36  -0.10   0.21  -0.03   0.23  -0.01  -0.23  -0.05  -0.15  -0.13   0.07   0.14   0.13  -0.14  -0.14   0.22   0.00   0.04  -0.05   0.15   0.00   0.00   0.09   0.11   0.01   0.21   0.05   0.15   0.28   0.07  -0.05   0.05   0.02   0.23   0.05   0.07   0.03   0.13  -0.08   0.19   0.14   0.21   0.02  -0.08   0.08   0.14   0.05   0.28   0.10   0.08   0.06  -0.13  -0.06   0.04   0.13   0.09   0.28   0.08  -0.13  -0.03   0.16  -0.05  -0.08   0.02   0.21   0.12   0.08   0.16  -0.05  -0.03   0.07  -0.14  -0.08  -0.18  -0.01   0.20  -0.21  -0.35  -0.30  -0.28  -0.38  -0.63  -0.50  -0.17  -0.44  -0.16  -0.77
   0  23.800   0.95   0.94   0.98   1.02   0.99   0.99   1.00   1.00   0.99   1.00   0.99   0.99   1.00   1.00   1.00   1.00   1.00   1.00   1.00   1.00   1.00   1.00   0.99   0.99   0.99   0.99   0.99   0.98   0.98   0.98   0.99   0.98   0.98   0.98   0.98   0.98   0.98   0.99   0.99   0.98   0.98   0.98   0.99   0.99   0.99   0.99   0.99   0.99   0.99   0.99   0.99   0.99   0.99   0.99   0.99   1.00   1.00   1.00   1.00   1.00   1.00   1.00   1.00   1.00   0.99   0.99   0.99   0.99   0.99   0.99   0.99   0.99   0.99   0.99   0.99   1.00   1.00   1.00   1.00   1.00   1.00   1.00   1.00   1.00   1.01   1.00   1.00   1.00   1.00   1.00   1.01   1.02   1.02   1.02   0.99   1.00
   1  31.400   0.83   0.80   0.81   0.99   0.98   0.97   0.99   1.01   1.00   1.02   1.01   1.02   1.03   1.03   1.04   1.04   1.04   1.04   1.04   1.04   1.04   1.04   1.03   1.03   1.02   1.02   1.02   1.02   1.02   1.02   1.02   1.02   1.02   1.01   1.01   1.01   1.01   1.02   1.02   1.02   1.02   1.02   1.02   1.02   1.02   1.02   1.03   1.03   1.03   1.03   1.03   1.03   1.03   1.03   1.03   1.03   1.04   1.04   1.04   1.04   1.04   1.04   1.05   1.04   1.03   1.03   1.03   1.03   1.03   1.03   1.03   1.02   1.03   1.02   1.03   1.04   1.04   1.04   1.04   1.04   1.04   1.04   1.04   1.04   1.04   1.04   1.02   1.02   1.02   1.02   1.03   1.05   1.05   1.03   0.97   0.96
   2  50.300   0.99   1.04   1.04   1.01   0.98   0.98   1.01   1.01   1.00   1.01   1.00   1.00   1.01   1.01   1.02   1.02   1.04   1.03   1.03   1.03   1.04   1.04   1.03   1.02   1.02   1.02   1.02   1.02   1.03   1.03   1.03   1.01   1.02   1.02   1.01   1.01   1.01   1.01   1.02   1.03   1.02   1.01   1.02   1.02   1.02   1.02   1.02   1.03   1.03   1.03   1.03   1.03   1.03   1.03   1.03   1.03   1.04   1.04   1.04   1.04   1.04   1.04   1.04   1.04   1.04   1.03   1.03   1.03   1.02   1.03   1.03   1.02   1.02   1.02   1.03   1.03   1.03   1.03   1.04   1.04   1.04   1.04   1.04   1.05   1.04   1.04   1.03   1.03   1.03   1.03   1.03   1.03   1.03   1.02   1.01   0.96
   3  51.760   0.91   1.01   1.01   0.99   0.99   0.99   1.00   1.01   1.01   1.00   1.00   1.00   1.00   1.00   1.01   1.01   1.02   1.02   1.02   1.02   1.02   1.02   1.02   1.02   1.01   1.01   1.01   1.01   1.01   1.01   1.01   1.00   1.00   1.01   1.00   1.00   1.00   1.00   1.01   1.01   1.01   1.00   1.00   1.01   1.01   1.01   1.01   1.01   1.01   1.01   1.02   1.01   1.01   1.01   1.02   1.02   1.02   1.02   1.02   1.02   1.02   1.02   1.02   1.02   1.02   1.01   1.01   1.01   1.01   1.01   1.01   1.01   1.01   1.01   1.01   1.02   1.02   1.02   1.01   1.01   1.02   1.02   1.02   1.02   1.02   1.02   1.02   1.02   1.02   1.01   1.01   1.01   1.00   0.99   0.89   0.80
   4  52.800   0.97   0.95   0.98   0.99   0.98   1.00   1.00   1.00   1.00   1.00   1.00   1.00   1.00   1.00   1.00   1.00   1.00   1.01   1.01   1.01   1.01   1.01   1.01   1.01   1.01   1.01   1.00   1.01   1.00   1.00   1.00   1.00   1.00   1.00   1.00   1.00   1.00   1.00   1.00   1.00   1.00   1.00   1.00   1.01   1.01   1.00   1.00   1.00   1.00   1.00   1.00   1.00   1.00   1.00   1.00   1.00   1.00   1.00   1.00   1.00   1.00   1.00   1.00   1.00   1.00   1.00   1.00   1.00   1.00   1.00   1.01   1.00   1.00   1.00   1.01   1.01   1.01   1.01   1.00   1.00   1.01   1.01   1.01   1.00   1.01   1.01   1.01   1.01   1.01   1.01   1.01   1.01   1.00   0.98   0.95   0.90
   5  53.596   0.97   0.96   0.97   0.98   0.98   0.98   0.99   0.99   0.99   0.99   0.99   0.99   1.00   0.99   1.00   0.99   0.99   1.00   1.00   1.00   1.00   1.00   1.00   1.00   1.00   1.00   1.00   1.00   1.00   1.00   1.00   1.00   1.00   1.00   1.00   1.00   1.00   1.00   1.00   1.00   1.00   1.00   1.00   1.00   1.00   1.00   1.00   1.00   1.00   1.00   1.00   1.00   1.00   1.00   1.00   1.00   1.00   1.00   1.00   1.00   1.00   1.00   1.00   1.00   1.00   1.00   1.00   1.00   1.00   1.00   1.00   1.00   1.00   1.00   1.00   1.00   1.00   1.00   1.00   1.00   1.00   1.00   1.00   1.00   1.01   1.01   1.00   1.01   1.00   1.00   1.00   1.00   1.00   0.98   0.97   0.96
   6  54.400   0.98   0.96   0.96   0.96   0.95   0.94   0.96   0.96   0.96   0.96   0.97   0.97   0.96   0.97   0.97   0.97   0.98   0.97   0.97   0.97   0.97   0.97   0.97   0.98   0.98   0.98   0.98   0.98   0.98   0.98   0.98   0.98   0.98   0.98   0.98   0.98   0.98   0.98   0.98   0.98   0.98   0.98   0.98   0.98   0.98   0.98   0.98   0.98   0.98   0.98   0.98   0.98   0.98   0.98   0.98   0.98   0.98   0.98   0.98   0.98   0.98   0.98   0.98   0.98   0.98   0.98   0.98   0.98   0.98   0.98   0.98   0.98   0.98   0.98   0.98   0.98   0.98   0.98   0.98   0.97   0.98   0.98   0.97   0.98   0.97   0.97   0.97   0.97   0.97   0.97   0.97   0.97   0.98   0.97   0.98   0.96
   7  54.940   0.96   0.96   1.01   0.99   0.99   1.00   0.98   0.98   0.98   0.98   0.97   0.96   0.96   0.97   0.96   0.96   0.97   0.96   0.96   0.96   0.96   0.96   0.96   0.96   0.95   0.96   0.97   0.96   0.96   0.96   0.97   0.97   0.97   0.97   0.97   0.97   0.97   0.97   0.98   0.98   0.98   0.97   0.98   0.98   0.98   0.98   0.98   0.97   0.97   0.97   0.97   0.97   0.98   0.97   0.98   0.98   0.97   0.98   0.97   0.98   0.97   0.97   0.97   0.97   0.97   0.97   0.96   0.97   0.96   0.97   0.97   0.97   0.97   0.97   0.97   0.96   0.97   0.96   0.97   0.96   0.96   0.96   0.97   0.97   0.97   0.97   0.98   0.98   0.98   0.99   0.99   0.99   0.98   0.98   0.99   0.96
   8  55.500   0.98   0.97   0.98   0.99   0.99   1.01   1.00   0.99   0.99   0.99   0.98   0.98   0.99   0.98   0.98   0.98   0.98   0.98   0.98   0.98   0.97   0.98   0.97   0.98   0.98   0.98   0.98   0.97   0.98   0.98   0.98   0.97   0.97   0.97   0.97   0.97   0.97   0.97   0.97   0.97   0.97   0.97   0.97   0.97   0.97   0.97   0.97   0.97   0.97   0.97   0.97   0.97   0.97   0.97   0.97   0.97   0.97   0.97   0.97   0.97   0.97   0.97   0.97   0.97   0.97   0.97   0.97   0.98   0.97   0.97   0.98   0.98   0.98   0.98   0.98   0.99   0.99   0.99   0.98   0.99   0.99   0.99   0.99   0.99   0.99   0.99   1.00   1.00   1.00   1.00   0.99   0.99   0.99   0.98   0.98   0.99
   9  57.290   0.97   0.96   0.98   0.99   1.00   1.01   1.00   1.00   1.01   1.00   1.00   1.00   1.00   1.01   1.00   1.00   1.00   1.00   1.01   1.01   1.00   1.01   1.01   1.01   1.01   1.01   1.01   1.01   1.01   1.01   1.01   1.01   1.01   1.01   1.01   1.01   1.01   1.01   1.01   1.01   1.01   1.01   1.01   1.01   1.00   1.01   1.01   1.01   1.01   1.01   1.01   1.01   1.01   1.01   1.01   1.01   1.01   1.00   1.00   1.01   1.01   1.01   1.01   1.00   1.00   1.01   1.00   1.00   1.00   1.00   1.01   1.00   1.01   1.00   1.01   1.01   1.01   1.01   1.01   1.01   1.01   1.01   1.01   1.01   1.01   1.01   1.01   1.01   1.01   1.01   1.01   1.01   1.01   0.99   0.99   0.99
  10  57.290   0.97   0.95   1.00   0.99   0.98   0.98   0.98   0.98   0.98   0.99   0.99   0.98   0.98   0.98   0.99   0.98   0.99   0.99   0.98   0.99   0.99   0.99   0.99   0.99   0.99   0.99   0.99   0.99   1.00   0.99   1.00   0.99   0.99   1.00   1.00   1.00   0.99   0.99   1.00   1.00   0.99   0.99   1.00   0.99   0.99   0.99   0.99   0.99   1.00   0.99   0.99   1.00   0.99   0.99   0.99   0.99   0.99   0.99   0.99   0.99   0.99   0.99   0.99   0.99   0.99   0.99   0.99   0.99   0.99   0.99   0.99   0.99   0.99   0.99   0.99   1.00   1.00   0.99   1.00   1.00   0.99   1.00   0.99   1.00   1.00   1.00   1.00   1.00   1.00   1.00   1.00   0.99   0.99   0.99   0.99   0.97
  11  57.290   0.97   0.99   1.00   0.97   0.98   0.98   0.98   0.98   0.97   0.98   0.98   0.98   0.98   0.98   0.99   0.99   0.98   0.98   0.98   0.98   0.98   0.98   0.98   0.98   0.98   0.98   0.98   0.98   0.98   0.98   0.98   0.98   0.98   0.99   0.98   0.98   0.99   0.99   0.98   0.98   0.98   0.98   0.98   0.98   0.98   0.98   0.98   0.98   0.98   0.98   0.98   0.98   0.98   0.98   0.98   0.98   0.98   0.98   0.98   0.98   0.98   0.98   0.98   0.98   0.98   0.97   0.98   0.98   0.98   0.98   0.98   0.98   0.99   0.99   0.99   0.99   0.99   0.99   0.99   0.99   0.99   0.99   1.00   1.00   1.00   1.00   1.00   1.00   1.00   1.00   1.00   1.00   0.99   1.00   0.99   1.00
  12  57.290   0.95   0.95   0.92   0.96   0.98   0.99   0.99   0.97   0.97   0.98   0.98   0.97   0.98   0.98   0.98   0.98   0.97   0.98   0.96   0.97   0.96   0.97   0.97   0.97   0.96   0.96   0.96   0.96   0.96   0.96   0.97   0.96   0.95   0.96   0.96   0.96   0.96   0.96   0.96   0.96   0.97   0.96   0.96   0.95   0.95   0.96   0.96   0.96   0.96   0.96   0.96   0.97   0.97   0.97   0.97   0.97   0.97   0.97   0.96   0.96   0.96   0.97   0.96   0.96   0.96   0.96   0.97   0.98   0.98   0.98   0.98   0.98   0.98   0.98   0.98   0.98   0.98   0.98   0.98   0.98   0.98   0.98   0.99   0.99   0.99   0.99   0.99   0.99   0.99   0.99   0.99   1.00   0.99   0.98   0.98   0.93
  13  57.290   0.87   0.90   0.87   0.91   0.93   0.94   0.94   0.93   0.95   0.94   0.94   0.94   0.95   0.94   0.94   0.94   0.94   0.95   0.94   0.94   0.94   0.95   0.95   0.95   0.94   0.94   0.94   0.94   0.93   0.93   0.93   0.93   0.93   0.93   0.93   0.93   0.93   0.93   0.92   0.93   0.93   0.92   0.93   0.92   0.93   0.93   0.93   0.93   0.93   0.93   0.94   0.94   0.94   0.95   0.95   0.95   0.94   0.94   0.94   0.94   0.93   0.94   0.93   0.93   0.93   0.93   0.93   0.96   0.97   0.96   0.96   0.96   0.96   0.96   0.97   0.96   0.96   0.96   0.96   0.96   0.97   0.97   0.97   0.97   0.97   0.97   0.97   0.97   0.97   0.97   0.98   0.98   0.97   0.97   0.94   0.88
  14  57.290   0.72   0.68   0.73   0.72   0.76   0.79   0.77   0.79   0.79   0.79   0.79   0.81   0.81   0.82   0.82   0.82   0.82   0.83   0.83   0.84   0.82   0.83   0.83   0.82   0.82   0.82   0.82   0.81   0.81   0.81   0.80   0.80   0.81   0.80   0.81   0.82   0.82   0.82   0.81   0.81   0.80   0.81   0.81   0.80   0.80   0.80   0.81   0.82   0.80   0.81   0.82   0.83   0.83   0.83   0.83   0.83   0.81   0.83   0.82   0.81   0.81   0.80   0.81   0.79   0.79   0.80   0.80   0.83   0.84   0.84   0.85   0.84   0.84   0.85   0.85   0.85   0.84   0.85   0.84   0.84   0.84   0.85   0.85   0.85   0.85   0.85   0.87   0.87   0.87   0.86   0.87   0.84   0.83   0.74   0.74   0.68
  15  88.200   1.10   1.07   1.06   1.06   1.03   1.01   1.03   1.03   1.02   1.03   1.02   1.03   1.03   1.03   1.04   1.04   1.04   1.04   1.04   1.03   1.04   1.03   1.02   1.02   1.01   1.01   1.02   1.01   1.01   1.01   1.01   1.01   1.00   1.01   1.01   1.01   1.01   1.01   1.01   1.01   1.01   1.01   1.01   1.01   1.01   1.01   1.02   1.02   1.02   1.02   1.02   1.03   1.03   1.03   1.03   1.03   1.03   1.03   1.03   1.03   1.03   1.03   1.03   1.03   1.03   1.02   1.02   1.02   1.02   1.02   1.02   1.02   1.02   1.02   1.03   1.04   1.04   1.04   1.04   1.05   1.05   1.06   1.06   1.06   1.06   1.06   1.06   1.05   1.05   1.05   1.06   1.07   1.07   1.05   1.05   1.06
  16 165.500   0.97   0.98   1.00   1.02   0.96   0.97   1.03   1.03   1.02   1.00   1.00   1.00   1.01   1.01   1.02   1.03   1.02   1.02   1.03   1.03   1.03   1.03   1.03   1.03   1.03   1.02   1.03   1.03   1.04   1.03   1.03   1.03   1.04   1.05   1.06   1.06   1.06   1.05   1.05   1.05   1.05   1.04   1.04   1.04   1.04   1.05   1.05   1.05   1.05   1.06   1.06   1.06   1.06   1.06   1.05   1.04   1.03   1.03   1.03   1.04   1.03   1.03   1.03   1.03   1.03   1.03   1.03   1.05   1.05   1.06   1.07   1.06   1.06   1.06   1.06   1.07   1.08   1.08   1.07   1.07   1.07   1.08   1.08   1.08   1.08   1.09   1.09   1.08   1.06   1.05   1.03   1.01   1.00   1.00   0.98   0.92
  17 183.310   0.90   0.84   0.92   0.94   0.87   0.91   0.88   0.91   0.91   0.91   0.90   0.90   0.90   0.89   0.89   0.89   0.89   0.89   0.89   0.90   0.90   0.90   0.89   0.89   0.89   0.91   0.91   0.90   0.90   0.90   0.90   0.90   0.90   0.90   0.91   0.91   0.91   0.91   0.92   0.90   0.90   0.90   0.90   0.90   0.91   0.91   0.91   0.91   0.91   0.91   0.92   0.91   0.92   0.92   0.91   0.91   0.90   0.90   0.90   0.90   0.91   0.91   0.91   0.91   0.90   0.89   0.90   0.91   0.91   0.92   0.92   0.92   0.92   0.92   0.91   0.92   0.92   0.92   0.92   0.91   0.90   0.91   0.91   0.91   0.90   0.90   0.90   0.90   0.89   0.89   0.88   0.87   0.88   0.97   0.99   0.95
  18 183.310   0.93   0.84   0.91   0.95   0.89   0.92   0.90   0.92   0.92   0.93   0.92   0.91   0.91   0.91   0.91   0.91   0.90   0.90   0.91   0.91   0.91   0.91   0.91   0.91   0.92   0.92   0.92   0.92   0.92   0.92   0.91   0.91   0.91   0.91   0.91   0.92   0.92   0.92   0.92   0.91   0.91   0.91   0.91   0.91   0.91   0.92   0.91   0.91   0.91   0.91   0.92   0.92   0.93   0.92   0.92   0.92   0.92   0.92   0.91   0.92   0.92   0.92   0.92   0.92   0.92   0.91   0.92   0.92   0.92   0.92   0.92   0.92   0.93   0.92   0.92   0.93   0.92   0.92   0.92   0.92   0.92   0.92   0.91   0.91   0.91   0.91   0.91   0.90   0.90   0.90   0.89   0.87   0.89   0.96   0.98   0.96
  19 183.310   0.95   0.86   0.93   0.95   0.90   0.93   0.90   0.91   0.91   0.92   0.92   0.92   0.92   0.92   0.92   0.91   0.91   0.92   0.92   0.93   0.92   0.92   0.92   0.92   0.92   0.93   0.93   0.93   0.93   0.93   0.92   0.92   0.92   0.92   0.92   0.92   0.92   0.92   0.92   0.92   0.91   0.91   0.91   0.91   0.91   0.91   0.91   0.91   0.91   0.91   0.92   0.92   0.93   0.92   0.92   0.92   0.92   0.92   0.92   0.91   0.92   0.92   0.92   0.92   0.91   0.92   0.92   0.92   0.92   0.92   0.92   0.92   0.93   0.93   0.92   0.92   0.92   0.93   0.92   0.92   0.92   0.92   0.92   0.92   0.92   0.92   0.92   0.91   0.91   0.90   0.89   0.88   0.89   0.95   0.96   0.95
  20 183.310   0.94   0.88   0.93   0.93   0.91   0.92   0.91   0.91   0.91   0.92   0.91   0.92   0.92   0.92   0.92   0.92   0.92   0.92   0.92   0.93   0.93   0.93   0.93   0.93   0.93   0.93   0.93   0.93   0.93   0.93   0.93   0.92   0.93   0.92   0.92   0.92   0.92   0.92   0.92   0.91   0.91   0.91   0.91   0.91   0.91   0.92   0.92   0.92   0.92   0.92   0.92   0.92   0.92   0.92   0.92   0.92   0.92   0.92   0.92   0.92   0.92   0.92   0.92   0.92   0.92   0.92   0.93   0.93   0.93   0.92   0.92   0.93   0.93   0.93   0.92   0.93   0.92   0.92   0.92   0.92   0.92   0.92   0.92   0.92   0.92   0.92   0.92   0.92   0.91   0.91   0.90   0.89   0.89   0.93   0.93   0.88
  21 183.310   0.90   0.89   0.96   0.93   0.92   0.93   0.91   0.91   0.91   0.92   0.91   0.92   0.92   0.92   0.92   0.92   0.92   0.93   0.93   0.94   0.94   0.94   0.94   0.94   0.94   0.94   0.94   0.94   0.94   0.94   0.94   0.93   0.93   0.93   0.93   0.92   0.92   0.92   0.92   0.92   0.91   0.92   0.92   0.92   0.92   0.92   0.92   0.92   0.92   0.92   0.92   0.92   0.92   0.92   0.92   0.92   0.93   0.92   0.92   0.92   0.92   0.93   0.93   0.93   0.93   0.93   0.93   0.94   0.93   0.93   0.93   0.93   0.94   0.93   0.93   0.93   0.92   0.92   0.92   0.92   0.93   0.93   0.92   0.92   0.92   0.92   0.92   0.92   0.92   0.92   0.91   0.89   0.88   0.92   0.93   0.89
   0  23.800   5.76   6.46   0.05  -5.25  -0.64  -1.36  -2.12  -1.79  -1.32  -1.64  -0.44  -0.32  -1.37  -1.58  -2.27  -1.91  -2.31  -2.11  -1.99  -1.56  -1.65  -1.16  -0.31  -0.04   0.54   0.73   0.62   1.00   1.15   1.14   0.67   1.30   1.34   1.17   1.18   1.24   1.34   0.64   0.59   0.76   1.07   1.01   0.61   0.37   0.19   0.25  -0.17  -0.39  -0.54  -0.56  -0.52  -0.82  -0.86  -0.80  -0.75  -0.97  -0.99  -1.06  -1.44  -1.40  -1.80  -1.68  -1.91  -1.48  -0.68  -0.24  -0.03   0.19   0.61   0.38   0.19   0.65   0.67   0.55  -0.03  -0.97  -1.56  -1.24  -1.14  -1.05  -1.41  -2.24  -2.59  -2.84  -2.99  -2.82  -1.96  -2.00  -2.30  -3.03  -4.98  -6.07  -5.14  -6.45  -1.81  -2.10
   1  31.400  27.42  31.09  29.75   1.20   1.64   3.40  -0.51  -2.44  -2.13  -4.51  -3.13  -3.90  -5.86  -6.44  -7.44  -7.23  -7.96  -7.72  -7.68  -7.47  -7.73  -7.22  -6.20  -5.53  -4.39  -3.40  -4.30  -4.10  -4.23  -4.01  -4.08  -3.71  -3.32  -2.92  -2.52  -2.37  -2.34  -3.13  -3.60  -3.49  -3.38  -3.40  -3.80  -3.97  -4.15  -4.04  -4.44  -4.96  -5.03  -5.12  -5.22  -5.48  -5.60  -5.38  -5.13  -5.90  -6.24  -6.31  -6.92  -6.89  -7.37  -7.42  -7.71  -6.86  -5.67  -5.47  -5.46  -5.26  -4.85  -4.65  -4.83  -4.51  -4.74  -4.56  -4.92  -6.34  -7.04  -6.47  -6.47  -6.40  -7.25  -7.92  -7.99  -7.91  -7.52  -6.65  -4.70  -4.42  -4.06  -3.26  -4.76  -7.74  -7.46  -5.89   3.81   6.57
   2  50.300   3.16  -8.75  -9.34  -2.75   3.96   4.27  -2.06  -3.38  -1.61  -2.56  -0.18  -0.53  -3.75  -3.77  -5.02  -6.49  -9.60  -8.86  -9.21  -9.19 -10.98 -10.62  -8.86  -7.31  -6.60  -5.74  -7.53  -7.35  -8.36  -8.70  -8.07  -5.77  -6.32  -6.61  -5.80  -4.87  -4.40  -5.94  -7.09  -8.25  -7.26  -5.94  -6.39  -6.82  -7.90  -7.19  -7.91  -8.72  -8.62  -9.30  -9.64  -9.24  -9.69  -9.95  -9.61 -10.41 -10.71 -11.74 -11.58 -12.36 -12.41 -12.18 -11.89 -12.03 -10.52  -9.03  -8.85  -8.45  -8.01  -8.17  -8.39  -7.76  -7.40  -7.36  -8.20  -9.72 -10.18  -9.87 -10.31 -10.63 -10.91 -11.68 -12.26 -12.56 -11.86 -11.23  -9.39  -8.87  -8.13  -7.90  -6.89  -8.82  -7.76  -4.09  -1.91  11.12
   3  51.760  26.05  -1.55  -2.40   2.96   4.67   2.17  -0.02  -0.90  -1.19  -0.85   1.22   0.10  -0.52  -1.28  -2.47  -3.23  -5.03  -4.76  -5.27  -5.89  -6.33  -6.20  -5.44  -4.80  -4.48  -3.37  -3.69  -3.63  -3.42  -3.49  -3.24  -1.37  -2.13  -2.76  -2.54  -2.48  -1.56  -2.41  -2.95  -3.68  -2.75  -2.13  -2.60  -3.64  -3.76  -3.87  -3.41  -3.78  -3.92  -4.95  -5.37  -4.07  -4.59  -4.91  -5.27  -5.15  -5.99  -6.66  -6.78  -7.01  -6.59  -6.09  -6.27  -6.41  -5.62  -4.35  -3.96  -3.91  -3.57  -4.13  -4.05  -3.53  -2.94  -3.08  -3.54  -4.72  -5.71  -4.85  -4.44  -4.19  -4.58  -5.26  -5.45  -5.04  -5.11  -4.78  -4.33  -4.21  -3.50  -2.26  -1.82  -0.66  -0.10   3.48  30.42  53.43
   4  52.800   7.47  14.11   6.60   3.69   6.11   1.56   0.92  -0.61  -0.10   0.11   0.26   0.40  -0.72  -0.17  -0.23  -0.23  -0.25  -1.16  -1.77  -1.68  -1.37  -2.11  -2.59  -2.27  -2.24  -1.61  -0.87  -1.50  -0.85  -0.76  -0.24   0.05   0.04  -0.43  -0.04  -0.23  -0.02  -0.44  -0.26  -0.44  -0.28  -0.56  -1.18  -1.75  -1.72  -1.33  -0.77  -0.48  -0.57  -0.72  -0.62  -0.37  -0.13  -1.14  -0.99  -0.14  -0.53  -1.33  -1.38  -1.30  -1.38  -1.20  -0.85  -1.40  -0.64  -0.97  -0.71  -1.04  -1.11  -1.13  -1.69  -1.00  -1.19  -1.18  -1.44  -1.66  -1.87  -1.32  -0.82  -0.90  -1.26  -1.57  -1.57  -0.41  -0.83  -1.86  -2.50  -2.12  -1.90  -1.34  -1.09  -0.65   0.68   5.78  14.83  27.29
   5  53.596   6.82   9.60   7.51   5.75   5.05   4.76   2.99   2.22   1.91   1.74   1.60   1.39   1.20   1.43   0.62   1.42   1.34   0.58   0.24   0.98   1.15   0.08  -0.57  -0.53  -0.08  -0.21   0.04  -0.47   0.84   0.06   1.09   1.21   0.60   0.72   0.04  -0.48   0.16   0.78   0.32   0.57   0.01  -0.37  -0.71  -1.09  -0.77   0.49   0.13   0.73   0.24   0.54  -0.14   1.10   0.41   0.74   0.45   0.91   0.92   0.34   0.19   0.81   0.71   0.16   0.44   0.63   0.12   0.27  -0.30  -0.35  -0.26  -0.43  -0.22  -0.41  -0.20  -0.58   0.18   0.03   0.33   0.14   0.10  -0.01  -0.23  -0.68  -0.54  -0.67  -1.20  -1.04  -0.69  -1.26  -0.86  -0.07   0.50   0.56   1.38   5.08   7.35  11.28
   6  54.400   5.23   9.37   9.55   8.72  10.55  12.66   9.01   8.67   8.76   8.49   7.17   7.60   8.42   7.48   6.43   6.96   5.56   6.79   5.84   6.58   6.04   6.08   5.83   5.54   5.06   5.77   5.51   5.12   5.26   5.81   5.00   5.20   4.81   5.25   5.15   4.85   4.13   4.83   4.26   4.38   3.61   3.73   3.94   4.03   3.53   4.41   3.96   4.04   4.13   4.51   4.10   3.99   3.93   3.52   4.82   3.88   4.76   4.18   4.25   4.32   4.10   4.12   4.17   3.87   4.94   4.76   4.06   4.22   4.11   4.41   4.51   4.63   4.11   4.32   4.65   5.71   5.80   5.33   5.97   6.19   5.92   5.81   6.49   5.86   6.79   6.69   7.31   7.12   7.37   7.00   7.20   6.46   5.72   7.53   5.23   8.89
   7  54.940   8.25   8.05  -1.16   1.63   3.35   1.21   4.21   4.79   4.07   5.01   6.35   9.22   8.72   6.70   8.24   9.10   7.45   8.66   8.21   9.17   9.73   9.36   9.21   9.93  10.98   8.90   7.57   8.20   8.95   8.73   7.60   7.47   7.28   7.78   6.95   7.71   7.48   6.74   5.72   5.35   4.60   6.02   5.21   5.12   5.17   5.35   4.43   6.08   6.61   6.77   6.19   6.71   4.99   6.67   5.78   5.60   6.01   5.64   6.35   5.45   7.02   6.71   6.75   7.04   7.56   6.78   8.35   7.64   8.23   7.10   7.33   6.74   6.99   7.65   7.97   8.25   8.20   8.29   8.19   8.23   8.85   8.55   7.96   7.71   7.06   6.93   5.17   5.67   4.49   3.12   3.47   3.42   4.50   5.46   3.17   8.15
   8  55.500   4.39   7.24   4.63   1.41   1.36  -1.71   1.28   1.68   1.45   2.80   3.76   3.67   3.51   3.87   4.22   3.78   5.04   4.31   4.50   5.64   6.01   5.08   5.97   5.70   4.70   5.43   5.02   6.47   5.49   5.57   5.35   6.20   6.02   6.36   6.94   6.64   7.41   6.97   7.48   7.67   7.45   6.81   7.05   7.55   7.04   7.18   7.52   6.92   7.03   6.76   6.44   7.53   6.86   6.81   6.82   6.54   7.94   7.00   7.56   7.27   6.64   7.94   6.90   7.62   7.34   6.83   6.33   5.80   5.97   5.88   5.31   4.79   4.71   5.08   4.30   3.25   3.62   3.60   4.23   3.74   3.46   3.68   2.89   2.56   2.26   1.92   1.43   1.47   1.23   1.13   1.77   2.07   2.83   4.66   4.44   2.73
   9  57.290   6.25   8.03   3.78   0.52   0.30  -2.17  -0.65  -0.26  -1.66  -1.00  -1.37  -1.36  -1.35  -1.58  -1.08  -1.42  -1.08  -0.96  -1.61  -1.80  -1.09  -1.80  -1.95  -1.90  -2.18  -2.25  -2.37  -2.13  -2.48  -2.82  -2.58  -2.85  -2.26  -2.17  -2.28  -2.56  -2.23  -2.35  -2.49  -2.22  -2.14  -1.81  -2.05  -2.29  -1.46  -1.63  -2.01  -1.79  -1.91  -2.07  -1.95  -2.47  -2.35  -2.50  -2.03  -1.92  -1.89  -1.28  -1.33  -1.71  -1.60  -1.59  -2.00  -1.32  -1.22  -1.68  -1.31  -1.31  -1.35  -1.11  -1.51  -1.24  -1.76  -1.30  -1.79  -2.12  -2.19  -2.11  -2.17  -1.83  -1.93  -1.97  -2.61  -2.82  -2.70  -2.77  -3.08  -3.07  -3.12  -2.95  -3.17  -2.53  -1.62   1.14   1.12   1.47
  10  57.290   5.96   9.64  -0.80   2.46   4.36   2.80   4.64   4.04   3.67   2.45   1.72   2.95   3.39   3.04   1.58   3.12   1.97   2.49   2.78   1.73   2.41   2.31   0.98   1.02   2.37   0.84   0.76   0.47   0.08   0.53   0.05   0.84   0.76   0.41  -0.19   0.25   0.58   0.83  -0.12   0.05   0.51   0.78   0.22   0.95   0.44   1.13   0.44   1.27   0.17   1.43   0.54   0.27   1.24   0.85   1.57   1.22   1.47   2.20   1.20   1.60   1.70   1.35   1.84   1.71   1.88   1.89   2.50   2.14   1.71   1.88   1.98   1.34   0.76   1.02   0.87   0.09   0.16   0.63   0.09   0.10   0.82   0.34   0.89  -0.64   0.36   0.22  -0.57  -0.60  -0.79  -0.55  -0.39   0.71   1.62   1.86   2.52   5.86
  11  57.290   6.00   1.14  -0.24   5.77   3.73   3.46   4.08   3.27   5.44   3.50   3.46   2.99   3.40   3.49   2.34   2.46   3.85   2.76   3.51   2.95   4.48   2.72   3.88   2.78   3.23   2.74   3.25   4.09   3.58   3.66   3.42   4.19   2.79   2.37   3.47   2.87   2.38   2.00   2.60   2.70   3.08   3.42   3.43   4.51   4.26   4.60   4.39   4.08   4.63   4.13   4.23   4.04   3.57   3.94   4.10   3.54   3.25   3.31   4.18   3.65   3.92   3.55   3.35   4.09   4.04   5.45   3.99   3.74   3.37   2.98   2.72   3.38   1.81   2.17   2.56   2.28   0.97   2.52   2.07   1.57   2.17   1.47   0.12   0.14   0.41  -0.03   0.24   0.28  -1.17  -0.53  -0.24  -0.02   1.01  -0.39   1.30  -1.33
  12  57.290  11.12  11.59  19.06   7.75   4.14   1.67   1.14   7.03   5.68   4.39   4.99   5.74   5.08   4.81   4.57   4.44   6.53   5.03   8.41   6.07   7.44   7.22   5.79   6.87   8.34   8.34   7.44   7.47   8.74   9.12   6.85   9.44  10.13   9.35   9.05   8.92   9.49   9.06   9.00   9.56   7.02   7.60   7.29  10.26   9.89   9.46   8.44   9.41   8.79   8.27   7.72   6.92   6.03   5.60   6.35   7.23   6.47   6.72   8.03   7.77   7.50   6.13   9.16   8.01   8.55   8.51   7.10   4.10   4.13   4.32   3.56   5.05   4.23   4.12   3.59   4.01   3.05   4.49   4.29   4.05   3.56   3.04   2.43   2.53   2.02   2.35   1.11   1.14   0.63   2.10   1.44  -0.39   2.93   4.53   4.17  16.77
  13  57.290  32.58  25.85  32.80  21.76  17.34  15.06  14.13  16.73  12.68  14.74  13.05  13.30  12.37  14.76  13.44  14.37  14.36  12.14  14.06  13.76  14.59  12.33  12.35  12.61  14.03  12.89  13.13  14.61  16.76  16.90  17.08  15.65  16.17  15.26  15.78  16.12  17.05  16.28  17.49  15.08  16.05  17.56  16.09  19.11  16.45  16.54  16.94  16.62  16.63  16.15  13.47  13.26  12.72  10.69  11.86  10.81  14.92  12.91  14.20  14.75  15.92  14.11  15.95  15.63  16.40  16.87  15.69   9.43   7.74   9.04   8.76   8.86   8.43   9.00   7.53   8.74   8.45   8.48   9.12  10.19   8.03   7.77   7.07   6.51   6.51   7.61   6.50   5.93   7.20   7.27   5.49   5.58   6.73   7.30  15.82  29.37
  14  57.290  72.64  81.53  69.31  72.73  61.05  54.94  58.16  53.81  52.88  53.39  52.59  48.19  47.86  46.20  46.25  45.66  45.76  42.40  42.83  40.06  45.05  43.64  42.37  44.42  44.16  45.40  44.58  46.45  46.56  48.67  48.99  49.25  47.78  49.32  47.69  46.08  45.50  44.07  48.14  47.99  50.75  48.53  47.76  49.48  49.33  50.46  48.68  46.24  49.01  47.95  45.60  43.60  42.90  43.69  43.30  42.75  48.61  43.26  44.60  47.25  47.55  49.10  48.51  53.66  51.76  50.67  50.03  43.19  39.83  41.17  37.81  40.77  41.59  38.98  38.96  37.94  39.69  39.02  40.01  39.77  39.72  37.33  39.17  39.51  38.44  37.63  32.94  33.13  33.17  36.08  33.78  41.28  43.07  67.92  67.45  82.72
  15  88.200 -27.06 -20.01 -17.80 -17.51  -9.51  -5.56  -8.10  -8.33  -7.59  -7.98  -7.37  -8.07  -9.38  -9.45 -10.54 -10.83 -11.25 -10.85 -10.05  -8.98  -9.70  -8.67  -6.58  -4.91  -4.59  -3.95  -4.83  -4.27  -4.31  -4.20  -4.13  -2.47  -2.45  -3.14  -3.90  -3.67  -3.30  -4.31  -4.54  -4.30  -3.57  -3.29  -3.53  -3.82  -3.89  -4.24  -5.45  -5.63  -6.06  -6.28  -6.39  -7.26  -7.30  -7.00  -7.14  -7.58  -7.42  -7.50  -7.84  -7.96  -8.43  -8.32  -8.54  -7.76  -6.99  -6.13  -6.30  -6.43  -5.93  -5.95  -6.59  -6.34  -6.47  -6.96  -7.85  -9.59 -10.92 -10.80 -11.49 -12.10 -12.69 -14.48 -14.90 -15.21 -15.51 -15.70 -14.59 -13.90 -13.00 -13.31 -15.43 -17.97 -17.87 -14.77 -12.95 -16.51
  16 165.500  10.99   7.56   0.37  -5.18  13.33   8.05  -7.83  -6.95  -4.47  -0.12  -0.01  -0.85  -2.63  -2.97  -5.69  -7.78  -5.78  -6.74  -8.75  -9.47  -9.14  -9.94  -9.12  -7.98  -8.25  -7.37  -7.82  -9.04 -10.34 -10.00 -10.27 -10.10 -11.30 -14.68 -17.28 -18.52 -17.05 -15.56 -15.03 -13.49 -13.55 -11.63 -11.53 -11.54 -12.86 -13.98 -14.67 -15.25 -15.81 -16.69 -17.32 -18.14 -17.00 -16.05 -14.02 -11.62  -9.20  -9.09  -9.78 -10.82 -10.07  -9.26  -9.53 -10.00  -8.78  -9.35  -9.62 -12.95 -14.24 -18.28 -19.36 -18.00 -17.35 -17.51 -18.14 -20.07 -21.58 -21.24 -19.96 -18.71 -18.90 -21.21 -21.70 -21.66 -22.74 -24.58 -24.88 -22.93 -16.92 -12.92  -7.60  -1.44   0.07  -0.04   7.18  23.72
  17 183.310  28.23  44.64  23.22  16.11  36.07  26.31  32.64  26.68  25.94  25.47  27.05  27.91  28.62  31.72  31.39  31.29  31.78  31.33  30.00  27.14  29.01  29.61  30.22  31.29  29.90  26.67  25.69  27.61  28.56  28.69  29.10  28.88  27.00  28.46  26.13  25.00  24.94  24.66  23.60  27.06  27.41  27.49  27.07  28.72  26.74  25.44  26.20  24.72  25.95  25.56  24.20  24.80  22.62  23.15  24.84  25.37  27.90  27.46  28.59  28.26  26.51  25.63  24.97  26.74  29.83  30.04  27.50  25.97  25.71  24.25  23.66  23.50  22.54  22.91  24.39  23.91  23.61  23.15  23.29  26.20  27.31  25.91  25.40  26.45  28.84  27.95  27.61  29.46  30.66  31.33  34.11  37.78  32.58  10.82   4.56  13.34
  18 183.310  18.23  41.94  22.94  13.71  29.54  20.68  28.39  22.84  21.52  20.30  22.46  24.12  24.42  25.55  25.25  25.66  26.46  27.05  25.21  24.13  24.08  25.07  25.13  25.70  23.43  21.84  21.00  20.89  21.95  22.86  23.83  24.82  24.71  25.95  24.73  23.27  23.01  22.48  21.97  24.11  24.44  24.47  24.79  25.44  24.93  23.23  24.99  23.61  24.34  23.96  22.43  22.48  20.90  21.34  22.26  21.96  22.82  22.06  24.18  23.62  23.03  21.75  21.21  21.71  23.39  23.77  22.82  22.08  22.53  21.75  21.73  21.15  20.66  21.04  21.39  20.65  21.06  20.96  21.42  22.76  22.92  22.71  23.65  25.16  25.32  24.75  25.09  26.38  27.46  27.63  31.12  34.71  29.30  10.33   5.48  11.20
  19 183.310  13.51  36.50  19.53  14.15  25.87  19.92  25.85  22.76  23.11  21.14  21.91  21.68  21.27  21.78  22.30  23.56  23.97  22.95  22.48  20.25  20.59  21.13  20.78  21.04  20.83  19.58  18.71  18.66  19.38  19.94  20.72  21.42  21.06  21.95  22.10  22.38  22.45  21.59  21.95  22.79  23.48  23.90  23.81  23.69  23.80  23.95  23.49  23.28  24.11  23.81  22.15  22.07  20.38  21.54  21.96  21.32  22.13  21.87  22.56  23.71  22.58  21.64  21.19  20.99  23.55  22.53  21.85  21.32  21.65  21.06  20.95  20.87  20.02  20.23  20.49  20.30  20.52  20.31  20.87  21.80  21.72  21.70  21.96  22.88  22.65  22.70  22.66  23.85  24.67  26.03  28.02  31.43  28.79  15.09  10.68  14.11
  20 183.310  16.34  29.91  17.35  19.13  23.37  20.19  24.07  23.56  22.53  21.27  22.48  20.77  20.05  20.49  21.01  21.65  21.60  20.76  19.99  18.46  17.88  17.94  17.45  18.80  18.16  18.08  18.24  17.58  17.59  17.95  18.28  19.61  18.59  19.69  20.62  21.34  21.64  21.42  20.53  22.29  22.71  22.76  22.63  22.67  22.24  21.77  21.17  21.25  21.76  21.97  21.11  21.24  20.61  21.03  21.50  20.56  20.57  20.72  20.97  21.77  21.66  20.45  19.83  20.31  21.38  20.03  19.59  18.58  19.17  19.67  19.81  19.38  19.00  19.36  19.92  19.47  20.05  20.04  20.71  21.01  20.01  20.08  20.50  21.32  21.48  21.85  21.46  21.74  22.52  22.90  25.51  29.02  28.51  17.98  16.94  30.24
  21 183.310  23.51  27.99  10.06  17.36  20.10  17.56  21.92  22.15  20.85  19.55  21.12  19.89  19.59  20.14  19.15  20.31  18.85  18.27  17.99  15.83  14.39  14.40  13.79  15.36  15.83  15.43  15.75  15.23  14.69  14.44  15.47  16.12  16.19  16.34  17.77  18.92  19.46  19.55  19.36  20.14  21.28  20.82  20.46  19.68  19.75  19.71  19.09  18.64  18.96  19.51  19.53  19.20  18.71  19.47  19.17  18.74  18.16  18.59  18.76  19.75  18.88  18.08  17.30  17.55  17.72  17.22  16.04  15.73  16.13  16.37  17.20  16.84  15.98  17.39  18.39  18.35  18.64  18.87  19.54  19.26  18.02  18.02  18.43  19.40  19.22  19.93  19.26  20.42  19.34  19.49  21.61  25.90  28.11  20.80  15.93  27.41
   0  23.800 187.80 185.01 187.54 186.64 185.61 182.33 181.78 181.31 181.31 180.67 180.43 180.18 179.77 179.13 178.40 177.93 177.67 177.16 176.51 175.91 175.49 174.79 174.20 173.22 172.43 171.55 170.76 170.34 169.85 169.06 168.37 167.87 167.26 166.78 166.48 166.23 165.83 165.70 165.34 164.95 164.75 164.68 164.80 164.83 164.88 164.83 165.00 165.15 165.60 165.94 166.25 166.33 166.40 166.45 166.74 166.89 167.39 168.00 168.42 168.84 169.29 169.99 170.68 171.31 171.86 172.34 172.90 173.45 173.92 174.26 174.87 175.67 176.33 176.95 177.86 178.87 179.59 180.11 180.84 181.49 181.98 182.62 182.98 183.32 183.56 183.54 183.10 182.85 182.58 181.87 181.17 181.77 181.27 180.69 181.17 192.61
   1  31.400 162.64 162.31 163.59 164.67 165.06 164.01 164.38 164.76 165.15 165.19 165.32 165.39 165.36 165.13 164.81 164.57 164.38 164.04 163.62 163.16 162.76 162.22 161.68 160.97 160.36 159.65 159.00 158.50 157.97 157.33 156.71 156.19 155.62 155.08 154.68 154.29 153.83 153.52 153.14 152.75 152.47 152.25 152.15 152.02 151.95 151.85 151.87 151.91 152.09 152.27 152.44 152.54 152.68 152.82 153.10 153.34 153.75 154.24 154.67 155.09 155.55 156.14 156.73 157.31 157.87 158.41 158.98 159.56 160.12 160.60 161.20 161.86 162.46 163.03 163.69 164.40 164.95 165.36 165.85 166.27 166.57 166.90 167.07 167.21 167.24 167.09 166.67 166.29 165.83 165.07 164.26 164.08 163.25 161.77 161.27 165.16
   2  50.300 255.35 253.31 251.00 248.75 246.51 243.56 241.42 239.52 237.76 235.93 234.30 232.77 231.31 229.84 228.44 227.24 226.19 225.14 224.15 223.25 222.50 221.75 221.08 220.34 219.76 219.16 218.66 218.34 218.05 217.73 217.45 217.28 217.08 216.93 216.89 216.87 216.80 216.84 216.81 216.75 216.76 216.82 216.94 217.00 217.08 217.10 217.19 217.25 217.40 217.51 217.59 217.56 217.53 217.48 217.51 217.49 217.58 217.71 217.78 217.84 217.94 218.12 218.31 218.49 218.67 218.86 219.11 219.40 219.70 219.99 220.42 220.97 221.53 222.14 222.91 223.81 224.68 225.54 226.57 227.66 228.78 230.03 231.30 232.67 234.09 235.54 236.93 238.49 240.15 241.80 243.56 245.76 247.73 249.81 252.37 256.52
   3  51.760 263.22 262.78 261.84 260.94 259.91 258.30 257.10 256.09 255.14 254.08 253.12 252.21 251.28 250.31 249.36 248.58 247.86 247.08 246.36 245.68 245.12 244.55 244.03 243.43 242.93 242.43 241.96 241.62 241.31 240.98 240.70 240.51 240.29 240.11 239.99 239.90 239.80 239.79 239.72 239.63 239.61 239.62 239.68 239.71 239.75 239.75 239.82 239.87 239.99 240.09 240.16 240.17 240.16 240.15 240.22 240.24 240.34 240.49 240.59 240.70 240.86 241.07 241.27 241.48 241.69 241.88 242.14 242.42 242.70 242.97 243.33 243.78 244.23 244.70 245.30 245.97 246.60 247.25 247.98 248.73 249.51 250.34 251.12 251.95 252.80 253.63 254.36 255.15 255.98 256.73 257.51 258.54 259.29 260.26 261.30 263.42
   4  52.800 257.63 258.76 259.18 259.50 259.83 259.67 259.68 259.78 259.91 259.90 259.93 259.97 259.90 259.76 259.61 259.57 259.52 259.34 259.20 259.07 259.00 258.88 258.79 258.60 258.44 258.30 258.09 257.95 257.85 257.71 257.62 257.59 257.51 257.45 257.41 257.38 257.36 257.40 257.38 257.35 257.37 257.39 257.45 257.51 257.52 257.54 257.60 257.66 257.74 257.82 257.88 257.88 257.87 257.86 257.91 257.91 257.95 258.02 258.07 258.13 258.22 258.32 258.40 258.48 258.55 258.58 258.65 258.72 258.77 258.80 258.85 258.96 259.05 259.12 259.27 259.42 259.53 259.64 259.78 259.86 259.97 260.05 260.03 260.00 259.96 259.86 259.62 259.38 259.12 258.75 258.36 258.10 257.56 257.35 256.96 257.36
   5  53.596 241.20 242.66 243.96 244.57 245.42 245.99 246.62 247.24 247.91 248.47 249.05 249.64 250.12 250.53 250.91 251.38 251.82 252.14 252.47 252.78 253.12 253.40 253.69 253.89 254.09 254.30 254.42 254.55 254.73 254.85 255.01 255.20 255.33 255.46 255.57 255.69 255.80 255.95 256.04 256.12 256.23 256.31 256.41 256.50 256.54 256.59 256.66 256.72 256.78 256.82 256.85 256.83 256.79 256.73 256.71 256.66 256.60 256.57 256.50 256.43 256.38 256.30 256.20 256.09 255.96 255.77 255.60 255.41 255.19 254.94 254.68 254.44 254.18 253.88 253.63 253.36 253.03 252.70 252.36 251.96 251.57 251.13 250.60 250.04 249.47 248.84 248.09 247.33 246.56 245.69 244.81 244.01 243.00 242.28 241.36 241.02
   6  54.400 223.74 225.25 226.48 227.00 227.69 228.33 229.01 229.59 230.21 230.79 231.40 232.00 232.51 232.98 233.43 233.94 234.43 234.85 235.26 235.65 236.05 236.39 236.75 237.04 237.34 237.65 237.88 238.12 238.37 238.59 238.83 239.08 239.28 239.47 239.65 239.82 239.98 240.16 240.29 240.41 240.54 240.64 240.76 240.85 240.90 240.96 241.02 241.07 241.11 241.13 241.13 241.10 241.04 240.97 240.92 240.85 240.76 240.67 240.55 240.43 240.31 240.16 239.99 239.81 239.61 239.37 239.13 238.87 238.59 238.28 237.95 237.64 237.30 236.93 236.60 236.24 235.84 235.42 235.00 234.54 234.07 233.57 233.01 232.44 231.86 231.26 230.57 229.87 229.18 228.42 227.67 226.92 226.09 225.28 224.40 223.70
   7  54.940 214.40 215.78 216.50 217.03 217.39 217.87 218.41 218.84 219.26 219.71 220.18 220.64 221.03 221.39 221.76 222.13 222.50 222.86 223.21 223.52 223.81 224.08 224.37 224.62 224.88 225.13 225.36 225.59 225.80 225.99 226.19 226.40 226.56 226.72 226.89 227.03 227.18 227.31 227.41 227.52 227.63 227.72 227.80 227.86 227.90 227.95 228.00 228.03 228.04 228.04 228.02 228.00 227.95 227.89 227.85 227.78 227.70 227.61 227.50 227.39 227.27 227.13 226.98 226.81 226.64 226.45 226.25 226.03 225.81 225.58 225.33 225.08 224.80 224.51 224.24 223.95 223.63 223.28 222.94 222.58 222.20 221.81 221.39 220.97 220.55 220.13 219.68 219.21 218.75 218.26 217.79 217.26 216.76 215.94 215.22 214.35
   8  55.500 209.07 210.19 210.38 210.90 210.87 211.15 211.49 211.73 211.92 212.21 212.49 212.76 212.98 213.19 213.43 213.63 213.82 214.08 214.31 214.50 214.64 214.80 214.99 215.17 215.33 215.50 215.69 215.88 216.02 216.15 216.26 216.39 216.48 216.59 216.72 216.82 216.93 216.98 217.02 217.10 217.16 217.23 217.26 217.28 217.30 217.34 217.35 217.35 217.33 217.30 217.27 217.25 217.23 217.19 217.16 217.11 217.04 216.96 216.88 216.80 216.71 216.59 216.48 216.35 216.24 216.14 216.02 215.87 215.76 215.65 215.52 215.37 215.19 215.04 214.86 214.69 214.49 214.26 214.03 213.82 213.58 213.35 213.13 212.92 212.71 212.52 212.37 212.18 211.99 211.81 211.64 211.38 211.23 210.44 209.91 209.08
   9  57.290 209.77 210.24 210.22 210.10 209.45 209.32 209.17 209.02 208.79 208.74 208.69 208.63 208.56 208.45 208.40 208.33 208.22 208.28 208.29 208.22 208.09 208.05 208.03 208.02 207.97 207.95 208.00 208.08 208.06 208.04 207.97 207.93 207.89 207.88 207.93 207.92 207.94 207.85 207.78 207.78 207.73 207.74 207.67 207.61 207.60 207.60 207.55 207.50 207.45 207.38 207.33 207.32 207.34 207.35 207.38 207.38 207.37 207.33 207.32 207.32 207.31 207.28 207.26 207.22 207.25 207.33 207.39 207.41 207.49 207.62 207.74 207.80 207.83 207.92 207.96 208.01 208.07 208.08 208.10 208.18 208.22 208.29 208.42 208.55 208.69 208.88 209.14 209.34 209.54 209.76 210.01 210.20 210.49 210.09 210.13 210.47
  10  57.290 217.27 217.36 217.37 216.65 216.00 215.60 215.19 214.89 214.56 214.35 214.20 214.07 213.90 213.68 213.52 213.39 213.25 213.24 213.18 213.04 212.87 212.79 212.72 212.64 212.52 212.45 212.41 212.42 212.35 212.30 212.21 212.17 212.10 212.06 212.08 212.06 212.06 211.98 211.90 211.88 211.83 211.83 211.80 211.74 211.72 211.72 211.70 211.66 211.63 211.61 211.57 211.57 211.59 211.61 211.68 211.69 211.72 211.71 211.73 211.75 211.77 211.77 211.78 211.77 211.82 211.92 212.00 212.06 212.14 212.28 212.41 212.52 212.60 212.73 212.85 212.98 213.08 213.16 213.26 213.41 213.53 213.67 213.85 214.03 214.22 214.46 214.70 214.90 215.11 215.33 215.64 215.95 216.29 216.27 216.58 217.69
  11  57.290 227.06 226.60 226.56 225.62 225.05 224.50 223.93 223.65 223.32 223.05 222.84 222.69 222.52 222.25 222.01 221.86 221.71 221.65 221.56 221.42 221.25 221.16 221.10 220.99 220.83 220.73 220.63 220.59 220.52 220.45 220.38 220.35 220.27 220.23 220.22 220.20 220.19 220.15 220.09 220.05 220.00 220.00 220.00 219.97 219.98 220.01 220.02 220.01 220.02 220.05 220.03 220.05 220.08 220.10 220.20 220.21 220.27 220.30 220.31 220.34 220.37 220.38 220.40 220.40 220.42 220.50 220.58 220.61 220.65 220.76 220.86 220.98 221.06 221.17 221.32 221.48 221.58 221.67 221.80 221.96 222.12 222.29 222.46 222.64 222.84 223.08 223.22 223.36 223.52 223.74 224.04 224.35 224.72 225.13 225.71 226.96
  12  57.290 237.44 236.80 236.98 236.16 235.46 234.92 234.33 234.07 233.75 233.38 233.08 232.86 232.70 232.43 232.12 231.87 231.67 231.53 231.42 231.26 231.08 230.98 230.92 230.81 230.64 230.51 230.37 230.32 230.25 230.19 230.12 230.09 230.02 229.98 229.98 229.96 229.92 229.88 229.83 229.78 229.73 229.72 229.72 229.72 229.75 229.81 229.85 229.86 229.89 229.95 229.94 229.99 230.00 230.03 230.14 230.14 230.22 230.27 230.29 230.33 230.36 230.40 230.43 230.42 230.43 230.48 230.55 230.54 230.56 230.66 230.74 230.88 230.95 231.04 231.18 231.32 231.42 231.50 231.64 231.82 232.00 232.21 232.38 232.59 232.83 233.11 233.20 233.38 233.61 233.96 234.33 234.68 235.18 236.22 237.28 237.52
  13  57.290 249.09 248.44 248.69 248.17 247.46 247.04 246.60 246.33 246.01 245.48 245.07 244.76 244.59 244.35 243.97 243.60 243.29 243.06 242.91 242.72 242.48 242.30 242.22 242.13 241.94 241.80 241.62 241.56 241.48 241.44 241.39 241.34 241.28 241.26 241.29 241.28 241.22 241.17 241.14 241.08 241.04 241.00 240.97 240.98 241.04 241.11 241.18 241.22 241.26 241.34 241.33 241.38 241.38 241.44 241.52 241.52 241.60 241.66 241.69 241.75 241.80 241.87 241.93 241.96 241.99 242.04 242.11 242.08 242.14 242.25 242.33 242.50 242.58 242.67 242.80 242.93 243.04 243.13 243.31 243.51 243.72 243.96 244.14 244.39 244.71 245.03 245.15 245.41 245.75 246.23 246.70 247.10 247.69 249.15 250.30 249.18
  14  57.290 257.50 256.86 256.92 256.93 256.65 256.52 256.39 256.23 256.09 255.65 255.29 255.01 254.91 254.78 254.53 254.18 253.86 253.66 253.54 253.38 253.15 252.94 252.84 252.78 252.62 252.52 252.35 252.28 252.21 252.19 252.16 252.11 252.07 252.05 252.10 252.09 252.05 252.02 252.02 251.98 251.96 251.92 251.89 251.92 252.00 252.08 252.17 252.23 252.29 252.37 252.35 252.38 252.39 252.45 252.50 252.51 252.56 252.62 252.66 252.72 252.76 252.83 252.94 252.99 253.05 253.10 253.15 253.13 253.23 253.33 253.38 253.53 253.57 253.66 253.76 253.88 253.98 254.03 254.18 254.32 254.50 254.68 254.80 255.01 255.27 255.54 255.64 255.84 256.12 256.49 256.85 257.08 257.45 258.57 258.91 257.73
  15  88.200 233.46 232.11 233.07 231.96 231.81 229.09 229.08 229.18 229.52 229.35 229.36 229.34 229.12 228.68 228.19 227.87 227.71 227.33 226.86 226.41 226.09 225.54 225.10 224.28 223.65 222.83 222.15 221.85 221.45 220.83 220.23 219.78 219.34 218.94 218.76 218.54 218.19 218.08 217.79 217.49 217.33 217.29 217.41 217.41 217.50 217.47 217.67 217.82 218.25 218.57 218.86 218.91 218.93 218.93 219.19 219.30 219.74 220.33 220.69 221.03 221.38 221.97 222.56 223.09 223.59 224.05 224.55 225.03 225.46 225.74 226.27 226.95 227.49 227.99 228.74 229.60 230.18 230.57 231.16 231.65 232.01 232.42 232.61 232.80 232.91 232.78 232.21 231.81 231.33 230.48 229.63 229.88 229.05 227.69 228.14 237.12
  16 165.500 279.82 280.48 278.39 278.37 278.38 277.23 276.63 276.32 276.35 276.26 276.09 275.95 275.57 275.10 274.68 274.45 274.19 273.99 273.86 273.66 273.53 273.38 273.33 273.02 272.77 272.51 272.21 272.32 272.34 272.21 272.06 272.20 272.30 272.39 272.50 272.56 272.69 272.84 272.90 272.98 273.13 273.23 273.37 273.52 273.60 273.67 273.83 274.09 274.38 274.55 274.69 274.64 274.57 274.54 274.60 274.55 274.52 274.66 274.73 274.79 274.86 274.89 275.04 275.23 275.35 275.43 275.55 275.55 275.58 275.51 275.52 275.62 275.66 275.63 275.83 276.03 276.13 276.25 276.50 276.62 276.83 277.03 277.05 277.05 277.12 277.22 277.03 276.94 276.90 276.69 276.57 276.86 276.71 276.46 276.44 279.29
  17 183.310 273.99 274.81 270.82 272.27 273.12 273.02 272.99 273.69 274.15 274.43 274.61 274.90 274.97 275.03 275.14 275.35 275.47 275.58 275.79 275.93 276.04 276.19 276.38 276.49 276.54 276.69 276.71 276.78 276.86 276.99 277.05 277.20 277.27 277.37 277.42 277.44 277.51 277.54 277.58 277.66 277.74 277.74 277.71 277.77 277.76 277.76 277.77 277.81 277.81 277.81 277.80 277.78 277.74 277.73 277.71 277.71 277.60 277.57 277.56 277.56 277.56 277.43 277.34 277.31 277.30 277.26 277.25 277.19 277.16 277.13 277.00 276.88 276.75 276.58 276.43 276.23 276.06 275.96 275.86 275.64 275.54 275.30 275.02 274.73 274.49 274.30 273.98 273.66 273.42 273.12 272.83 272.59 272.13 271.60 271.09 269.85
  18 183.310 268.37 269.12 264.57 266.04 266.84 266.74 266.72 267.67 268.26 268.57 268.77 269.11 269.21 269.34 269.50 269.75 269.92 270.08 270.36 270.52 270.66 270.84 271.07 271.22 271.35 271.56 271.63 271.67 271.79 271.95 272.03 272.17 272.28 272.38 272.43 272.47 272.53 272.54 272.56 272.65 272.71 272.70 272.64 272.70 272.71 272.70 272.66 272.67 272.64 272.62 272.62 272.59 272.53 272.50 272.47 272.49 272.36 272.33 272.28 272.26 272.22 272.05 271.92 271.87 271.86 271.83 271.82 271.75 271.73 271.73 271.59 271.46 271.32 271.14 270.95 270.73 270.55 270.44 270.33 270.09 269.96 269.65 269.32 268.98 268.72 268.50 268.15 267.77 267.50 267.17 266.80 266.47 266.04 265.52 264.98 263.30
  19 183.310 262.72 263.69 258.76 260.12 260.79 260.56 260.56 261.60 262.26 262.58 262.80 263.14 263.25 263.40 263.60 263.87 264.04 264.28 264.60 264.78 264.93 265.10 265.34 265.51 265.67 265.90 266.00 266.05 266.18 266.36 266.43 266.58 266.70 266.82 266.89 266.93 267.01 267.02 267.05 267.14 267.20 267.19 267.13 267.18 267.18 267.15 267.11 267.09 267.06 267.04 267.06 267.04 266.97 266.92 266.90 266.93 266.79 266.75 266.71 266.67 266.61 266.42 266.29 266.23 266.21 266.20 266.19 266.11 266.10 266.13 266.00 265.87 265.71 265.52 265.30 265.06 264.88 264.79 264.66 264.40 264.24 263.89 263.52 263.16 262.88 262.64 262.26 261.84 261.53 261.13 260.73 260.38 259.94 259.49 258.96 257.30
  20 183.310 254.97 256.78 251.71 252.71 253.17 252.84 252.93 253.99 254.70 254.99 255.21 255.53 255.62 255.77 256.02 256.31 256.49 256.77 257.14 257.33 257.48 257.64 257.89 258.07 258.25 258.49 258.61 258.67 258.82 259.03 259.09 259.25 259.38 259.52 259.61 259.66 259.76 259.80 259.84 259.94 260.03 260.03 259.97 260.00 260.01 259.97 259.91 259.88 259.86 259.82 259.86 259.85 259.78 259.72 259.69 259.74 259.59 259.55 259.52 259.48 259.41 259.20 259.06 259.00 258.98 258.98 258.96 258.88 258.86 258.90 258.77 258.63 258.45 258.23 257.97 257.70 257.52 257.42 257.27 256.97 256.78 256.40 256.00 255.60 255.30 255.05 254.64 254.19 253.81 253.36 252.94 252.63 252.23 251.94 251.38 249.99
  21 183.310 246.67 249.60 244.95 245.56 245.83 245.46 245.70 246.74 247.47 247.74 247.97 248.25 248.31 248.49 248.79 249.05 249.22 249.52 249.89 250.09 250.25 250.41 250.67 250.85 251.04 251.30 251.42 251.51 251.68 251.91 251.99 252.15 252.27 252.43 252.52 252.59 252.71 252.77 252.83 252.95 253.06 253.07 253.01 253.04 253.02 252.98 252.91 252.87 252.85 252.79 252.82 252.84 252.78 252.70 252.67 252.72 252.57 252.52 252.50 252.46 252.38 252.15 252.02 251.95 251.93 251.94 251.91 251.81 251.79 251.83 251.68 251.54 251.35 251.08 250.79 250.49 250.31 250.18 249.99 249.67 249.45 249.07 248.65 248.25 247.95 247.69 247.27 246.79 246.38 245.90 245.52 245.30 244.91 244.65 244.08 242.94
   0  23.800 191.00 189.85 191.62 188.31 187.48 184.77 184.20 183.80 183.77 183.06 182.69 182.27 181.75 181.04 180.30 179.81 179.49 178.95 178.26 177.60 177.12 176.44 175.90 174.90 174.13 173.21 172.38 171.97 171.47 170.65 169.93 169.48 168.94 168.50 168.27 168.04 167.67 167.54 167.19 166.81 166.60 166.51 166.61 166.56 166.56 166.49 166.68 166.83 167.31 167.67 167.97 168.06 168.12 168.16 168.45 168.62 169.12 169.75 170.17 170.57 171.01 171.68 172.33 172.94 173.47 174.00 174.57 175.12 175.57 175.98 176.60 177.41 178.02 178.64 179.54 180.55 181.26 181.78 182.50 183.19 183.76 184.48 184.93 185.31 185.59 185.62 185.20 184.91 184.66 184.15 183.47 183.44 182.96 184.08 184.91 195.39
   1  31.400 162.05 165.00 166.07 165.51 165.94 165.52 165.92 166.26 166.60 166.59 166.65 166.61 166.48 166.25 165.93 165.67 165.44 165.07 164.61 164.11 163.67 163.12 162.60 161.88 161.27 160.53 159.85 159.34 158.79 158.10 157.46 156.92 156.36 155.81 155.40 154.99 154.54 154.21 153.80 153.41 153.11 152.88 152.76 152.59 152.48 152.36 152.37 152.39 152.58 152.74 152.91 153.05 153.18 153.32 153.61 153.87 154.29 154.77 155.19 155.62 156.09 156.67 157.25 157.83 158.39 158.95 159.53 160.13 160.68 161.19 161.78 162.44 163.01 163.58 164.21 164.89 165.43 165.85 166.32 166.73 167.08 167.46 167.67 167.80 167.83 167.68 167.27 166.82 166.33 165.69 164.86 164.11 163.11 162.90 162.45 164.94
   2  50.300 254.74 252.91 250.79 248.42 246.42 243.62 241.64 240.01 238.44 236.73 235.24 233.81 232.44 231.09 229.82 228.74 227.80 226.84 225.91 225.08 224.38 223.71 223.15 222.47 221.94 221.41 220.96 220.68 220.46 220.14 219.90 219.78 219.63 219.49 219.53 219.55 219.51 219.55 219.54 219.50 219.54 219.60 219.70 219.73 219.78 219.81 219.91 219.97 220.12 220.24 220.31 220.30 220.28 220.24 220.27 220.25 220.32 220.42 220.47 220.53 220.60 220.75 220.89 221.08 221.26 221.47 221.70 221.98 222.25 222.56 222.99 223.50 224.00 224.58 225.32 226.15 226.97 227.79 228.75 229.80 230.89 232.08 233.27 234.54 235.82 237.12 238.36 239.70 241.14 242.60 244.15 246.10 247.81 249.71 251.94 255.59
   3  51.760 262.00 261.64 260.71 259.83 258.97 257.44 256.39 255.52 254.70 253.73 252.88 252.06 251.22 250.37 249.53 248.86 248.22 247.53 246.88 246.28 245.77 245.27 244.82 244.30 243.84 243.40 242.98 242.69 242.45 242.12 241.88 241.74 241.56 241.41 241.35 241.31 241.23 241.22 241.17 241.11 241.11 241.12 241.18 241.20 241.21 241.22 241.30 241.35 241.47 241.57 241.63 241.65 241.66 241.65 241.72 241.74 241.82 241.95 242.04 242.15 242.28 242.46 242.63 242.82 243.00 243.20 243.42 243.69 243.95 244.21 244.54 244.94 245.34 245.76 246.31 246.90 247.48 248.06 248.72 249.39 250.10 250.85 251.54 252.25 252.97 253.67 254.27 254.90 255.56 256.15 256.76 257.62 258.21 259.05 259.99 262.01
   4  52.800 257.03 258.18 258.52 258.79 259.12 258.96 259.01 259.12 259.28 259.27 259.32 259.41 259.37 259.27 259.17 259.18 259.16 259.02 258.92 258.83 258.80 258.71 258.66 258.51 258.39 258.29 258.09 257.98 257.92 257.80 257.75 257.75 257.70 257.67 257.67 257.66 257.66 257.70 257.70 257.70 257.73 257.75 257.80 257.85 257.87 257.89 257.97 258.04 258.13 258.20 258.25 258.27 258.25 258.24 258.29 258.29 258.30 258.37 258.39 258.44 258.51 258.58 258.64 258.71 258.75 258.77 258.81 258.86 258.87 258.89 258.90 258.96 259.00 259.04 259.16 259.27 259.33 259.39 259.48 259.52 259.57 259.61 259.53 259.44 259.32 259.16 258.87 258.56 258.25 257.82 257.41 257.11 256.53 256.29 255.88 256.16
   5  53.596 241.39 242.80 244.09 244.72 245.56 246.11 246.73 247.32 247.97 248.49 249.07 249.65 250.14 250.54 250.93 251.38 251.83 252.14 252.46 252.78 253.12 253.41 253.70 253.90 254.09 254.31 254.44 254.58 254.76 254.89 255.06 255.25 255.39 255.52 255.65 255.77 255.89 256.04 256.14 256.22 256.34 256.41 256.52 256.61 256.63 256.69 256.76 256.83 256.88 256.93 256.96 256.95 256.91 256.85 256.83 256.77 256.71 256.67 256.60 256.53 256.46 256.36 256.25 256.14 256.00 255.80 255.62 255.41 255.18 254.91 254.65 254.40 254.12 253.80 253.54 253.25 252.92 252.57 252.22 251.80 251.39 250.93 250.38 249.80 249.21 248.58 247.81 247.04 246.24 245.35 244.46 243.63 242.59 241.85 240.88 240.50
   6  54.400 223.87 225.34 226.57 227.11 227.80 228.40 229.08 229.66 230.27 230.84 231.45 232.06 232.58 233.05 233.52 234.02 234.53 234.94 235.35 235.75 236.15 236.50 236.86 237.17 237.46 237.77 238.02 238.25 238.51 238.73 238.98 239.24 239.44 239.64 239.83 239.99 240.16 240.35 240.47 240.59 240.72 240.83 240.94 241.02 241.07 241.14 241.20 241.26 241.29 241.30 241.30 241.27 241.21 241.14 241.08 241.00 240.91 240.83 240.71 240.59 240.45 240.29 240.12 239.93 239.71 239.46 239.20 238.94 238.64 238.32 237.97 237.65 237.29 236.91 236.57 236.21 235.79 235.34 234.90 234.43 233.95 233.43 232.85 232.26 231.66 231.03 230.32 229.59 228.88 228.09 227.32 226.54 225.70 224.86 223.95 223.21
   7  54.940 214.28 215.68 216.35 216.89 217.26 217.68 218.22 218.64 219.04 219.48 219.95 220.41 220.81 221.17 221.54 221.92 222.27 222.64 222.98 223.29 223.58 223.83 224.13 224.39 224.65 224.90 225.13 225.37 225.57 225.77 225.96 226.17 226.34 226.50 226.67 226.82 226.96 227.09 227.19 227.30 227.40 227.50 227.58 227.64 227.68 227.73 227.77 227.80 227.80 227.80 227.79 227.76 227.70 227.65 227.60 227.53 227.44 227.36 227.25 227.12 227.00 226.85 226.70 226.53 226.34 226.14 225.94 225.70 225.48 225.23 224.98 224.72 224.43 224.13 223.84 223.55 223.23 222.86 222.51 222.14 221.75 221.35 220.91 220.48 220.05 219.62 219.16 218.68 218.19 217.69 217.22 216.69 216.19 215.36 214.65 213.80
   8  55.500 208.72 209.93 210.01 210.63 210.59 210.82 211.14 211.37 211.54 211.84 212.11 212.38 212.61 212.81 213.06 213.25 213.45 213.71 213.94 214.14 214.28 214.42 214.61 214.79 214.96 215.13 215.31 215.50 215.64 215.78 215.89 216.02 216.11 216.23 216.37 216.46 216.56 216.63 216.67 216.75 216.81 216.87 216.91 216.92 216.94 216.98 216.98 216.99 216.98 216.94 216.91 216.89 216.86 216.82 216.79 216.74 216.66 216.58 216.50 216.40 216.30 216.18 216.07 215.93 215.82 215.71 215.57 215.42 215.29 215.17 215.05 214.88 214.69 214.53 214.35 214.16 213.96 213.71 213.48 213.26 213.01 212.76 212.54 212.32 212.10 211.90 211.73 211.53 211.33 211.14 210.98 210.73 210.56 209.78 209.30 208.49
   9  57.290 210.33 210.86 210.75 210.68 209.99 209.83 209.67 209.49 209.25 209.21 209.15 209.10 209.03 208.92 208.88 208.80 208.69 208.77 208.78 208.71 208.57 208.53 208.51 208.48 208.45 208.42 208.48 208.55 208.53 208.51 208.44 208.42 208.38 208.37 208.42 208.41 208.43 208.34 208.27 208.27 208.23 208.24 208.18 208.12 208.11 208.10 208.06 208.01 207.95 207.90 207.85 207.84 207.85 207.86 207.89 207.87 207.88 207.84 207.82 207.81 207.79 207.77 207.74 207.69 207.72 207.78 207.84 207.86 207.94 208.06 208.16 208.22 208.24 208.34 208.37 208.41 208.45 208.47 208.48 208.56 208.60 208.66 208.78 208.90 209.03 209.21 209.47 209.66 209.86 210.07 210.32 210.50 210.80 210.43 210.49 210.87
  10  57.290 217.84 217.95 217.86 217.21 216.54 216.16 215.74 215.41 215.08 214.88 214.72 214.62 214.45 214.23 214.06 213.98 213.81 213.80 213.75 213.62 213.45 213.37 213.30 213.22 213.10 213.03 213.00 213.03 212.95 212.88 212.81 212.77 212.71 212.68 212.70 212.69 212.68 212.61 212.53 212.51 212.45 212.47 212.43 212.38 212.35 212.35 212.33 212.28 212.26 212.25 212.20 212.21 212.23 212.25 212.29 212.30 212.35 212.34 212.36 212.37 212.39 212.37 212.38 212.37 212.41 212.50 212.58 212.64 212.70 212.85 212.97 213.07 213.14 213.28 213.36 213.49 213.58 213.66 213.76 213.90 214.01 214.15 214.32 214.48 214.66 214.89 215.12 215.31 215.51 215.73 216.02 216.33 216.64 216.64 217.02 218.18
  11  57.290 227.83 227.36 227.38 226.40 225.82 225.21 224.64 224.35 224.02 223.76 223.55 223.41 223.25 222.99 222.76 222.61 222.49 222.42 222.34 222.18 222.03 221.96 221.89 221.80 221.63 221.54 221.45 221.42 221.33 221.26 221.19 221.17 221.11 221.07 221.05 221.05 221.04 220.99 220.92 220.89 220.85 220.86 220.85 220.84 220.83 220.85 220.88 220.87 220.86 220.89 220.88 220.91 220.94 220.95 221.04 221.06 221.13 221.15 221.16 221.19 221.21 221.23 221.24 221.22 221.25 221.33 221.41 221.41 221.46 221.56 221.65 221.77 221.83 221.93 222.08 222.22 222.33 222.42 222.53 222.69 222.86 223.02 223.16 223.35 223.54 223.76 223.89 224.02 224.18 224.38 224.69 225.00 225.33 225.75 226.29 227.63
  12  57.290 238.04 237.23 237.66 236.86 236.20 235.55 234.99 234.72 234.39 234.03 233.72 233.53 233.38 233.13 232.83 232.61 232.37 232.23 232.13 231.96 231.82 231.70 231.67 231.58 231.41 231.25 231.12 231.07 230.99 230.95 230.87 230.84 230.77 230.75 230.76 230.72 230.69 230.68 230.61 230.56 230.53 230.50 230.51 230.52 230.56 230.59 230.66 230.68 230.68 230.76 230.72 230.78 230.79 230.84 230.92 230.92 231.01 231.07 231.08 231.09 231.14 231.19 231.20 231.19 231.21 231.25 231.29 231.30 231.29 231.37 231.47 231.59 231.67 231.76 231.88 232.01 232.12 232.18 232.32 232.49 232.67 232.87 233.04 233.24 233.47 233.75 233.83 233.99 234.21 234.55 234.91 235.22 235.71 236.69 237.74 237.76
  13  57.290 249.38 248.63 249.14 248.53 247.85 247.47 247.06 246.75 246.44 245.94 245.58 245.28 245.11 244.88 244.56 244.19 243.87 243.67 243.48 243.32 243.10 242.94 242.82 242.74 242.58 242.46 242.28 242.20 242.12 242.08 242.01 241.97 241.92 241.91 241.96 241.97 241.90 241.83 241.80 241.75 241.72 241.66 241.66 241.65 241.72 241.76 241.83 241.88 241.92 242.01 241.98 242.04 242.02 242.07 242.15 242.20 242.24 242.32 242.31 242.36 242.43 242.44 242.53 242.55 242.58 242.64 242.67 242.66 242.70 242.82 242.88 243.05 243.10 243.21 243.32 243.45 243.55 243.63 243.80 244.00 244.16 244.41 244.59 244.83 245.14 245.45 245.53 245.78 246.12 246.57 247.02 247.41 248.01 249.44 250.67 249.18
  14  57.290 257.00 256.11 256.89 256.95 256.61 256.56 256.44 256.29 256.12 255.67 255.36 255.15 255.05 254.89 254.65 254.37 254.06 253.83 253.71 253.59 253.35 253.16 253.11 253.05 252.88 252.78 252.70 252.64 252.56 252.53 252.45 252.44 252.40 252.38 252.45 252.44 252.35 252.39 252.37 252.36 252.35 252.23 252.21 252.32 252.28 252.45 252.51 252.53 252.65 252.72 252.65 252.68 252.78 252.81 252.91 252.83 252.90 252.98 252.96 253.02 253.05 253.12 253.22 253.21 253.27 253.39 253.39 253.35 253.43 253.49 253.55 253.70 253.76 253.80 253.90 254.00 254.08 254.15 254.27 254.34 254.51 254.68 254.75 254.94 255.18 255.43 255.51 255.69 255.90 256.21 256.51 256.69 257.27 258.10 258.46 257.45
  15  88.200 237.73 235.89 236.93 234.28 234.09 231.21 230.89 231.24 231.61 231.27 231.09 230.84 230.61 230.18 229.74 229.41 229.21 228.80 228.28 227.76 227.37 226.83 226.42 225.61 224.95 224.17 223.49 223.20 222.79 222.11 221.47 221.10 220.70 220.28 220.15 219.96 219.62 219.50 219.20 218.90 218.74 218.67 218.75 218.68 218.71 218.66 218.84 219.02 219.48 219.80 220.05 220.09 220.18 220.20 220.42 220.56 221.01 221.61 221.97 222.29 222.65 223.20 223.74 224.25 224.76 225.25 225.75 226.25 226.70 227.05 227.62 228.27 228.74 229.24 229.97 230.80 231.34 231.74 232.33 232.88 233.34 233.80 234.07 234.25 234.36 234.27 233.81 233.40 232.94 232.18 231.43 231.59 230.96 229.94 230.35 238.57
  16 165.500 278.43 279.66 277.58 277.39 277.25 276.37 275.90 275.79 275.97 275.91 275.76 275.65 275.36 274.99 274.70 274.56 274.34 274.20 274.16 274.03 273.92 273.84 273.81 273.56 273.37 273.11 272.88 272.98 273.04 272.90 272.80 272.95 273.10 273.27 273.45 273.57 273.70 273.87 273.92 273.99 274.11 274.14 274.24 274.36 274.42 274.48 274.66 274.92 275.17 275.33 275.44 275.41 275.39 275.39 275.38 275.35 275.29 275.41 275.47 275.50 275.55 275.53 275.65 275.79 275.84 275.91 276.04 276.06 276.08 276.06 276.06 276.11 276.11 276.07 276.23 276.40 276.48 276.51 276.66 276.70 276.86 277.01 276.99 276.89 276.87 276.91 276.69 276.47 276.33 276.08 275.90 275.98 275.74 275.44 275.15 277.59
  17 183.310 273.06 274.19 269.99 271.41 272.06 271.99 272.04 272.73 273.25 273.53 273.69 274.00 274.05 274.06 274.12 274.31 274.43 274.53 274.78 274.97 275.11 275.28 275.49 275.62 275.67 275.86 275.90 275.94 276.05 276.22 276.31 276.44 276.57 276.70 276.78 276.83 276.89 276.90 276.92 276.96 277.03 277.03 276.97 277.04 277.06 277.07 277.07 277.12 277.09 277.06 277.04 277.00 276.95 276.92 276.89 276.91 276.74 276.69 276.65 276.63 276.62 276.48 276.39 276.35 276.33 276.29 276.30 276.24 276.24 276.20 276.06 275.94 275.81 275.66 275.52 275.29 275.12 274.96 274.82 274.52 274.39 274.16 273.88 273.56 273.30 273.11 272.80 272.46 272.22 271.93 271.58 271.30 270.81 270.18 269.68 268.64
  18 183.310 268.07 268.91 264.27 265.60 266.26 266.13 266.18 267.16 267.81 268.15 268.33 268.67 268.74 268.79 268.92 269.13 269.27 269.41 269.73 269.92 270.10 270.29 270.52 270.69 270.84 271.07 271.13 271.16 271.29 271.48 271.59 271.72 271.84 271.96 272.05 272.12 272.17 272.13 272.15 272.20 272.25 272.25 272.16 272.22 272.25 272.26 272.21 272.23 272.19 272.14 272.12 272.07 271.99 271.97 271.93 271.95 271.80 271.74 271.65 271.61 271.57 271.39 271.26 271.22 271.20 271.17 271.18 271.12 271.12 271.12 270.97 270.85 270.73 270.56 270.39 270.17 269.98 269.81 269.66 269.37 269.22 268.92 268.60 268.24 267.97 267.76 267.42 267.04 266.77 266.46 266.04 265.68 265.21 264.57 264.08 262.57
  19 183.310 262.61 263.45 258.50 259.69 260.24 259.98 260.02 261.12 261.84 262.21 262.43 262.80 262.89 262.97 263.13 263.37 263.51 263.72 264.08 264.30 264.48 264.66 264.90 265.09 265.25 265.51 265.59 265.63 265.77 265.99 266.09 266.24 266.37 266.50 266.60 266.66 266.73 266.71 266.72 266.80 266.86 266.83 266.76 266.80 266.84 266.79 266.77 266.77 266.71 266.65 266.65 266.60 266.54 266.50 266.47 266.48 266.33 266.27 266.19 266.11 266.04 265.87 265.72 265.69 265.64 265.66 265.67 265.60 265.60 265.62 265.48 265.37 265.23 265.04 264.85 264.61 264.41 264.24 264.10 263.79 263.62 263.28 262.92 262.54 262.26 262.03 261.68 261.26 260.93 260.53 260.14 259.75 259.24 258.60 258.25 256.65
  20 183.310 255.04 256.55 251.46 252.35 252.72 252.28 252.51 253.63 254.41 254.78 255.02 255.36 255.44 255.54 255.75 256.02 256.16 256.43 256.81 257.04 257.22 257.39 257.66 257.84 258.03 258.33 258.41 258.46 258.64 258.88 258.97 259.14 259.29 259.45 259.55 259.64 259.71 259.72 259.73 259.83 259.93 259.90 259.81 259.85 259.89 259.85 259.84 259.81 259.78 259.70 259.71 259.70 259.61 259.57 259.51 259.55 259.38 259.33 259.25 259.19 259.11 258.91 258.76 258.73 258.68 258.71 258.69 258.62 258.60 258.64 258.48 258.36 258.20 257.98 257.74 257.47 257.26 257.10 256.93 256.59 256.39 256.02 255.62 255.20 254.91 254.65 254.26 253.80 253.45 252.98 252.56 252.25 251.76 251.21 250.85 249.27
  21 183.310 247.46 249.88 244.99 245.65 245.88 245.50 245.84 246.94 247.73 248.09 248.34 248.67 248.73 248.86 249.11 249.37 249.52 249.81 250.18 250.41 250.60 250.77 251.06 251.24 251.48 251.75 251.85 251.95 252.13 252.38 252.47 252.65 252.81 252.99 253.11 253.19 253.30 253.30 253.34 253.46 253.55 253.52 253.44 253.47 253.50 253.48 253.45 253.44 253.40 253.31 253.32 253.34 253.26 253.20 253.14 253.19 253.00 252.93 252.84 252.78 252.72 252.51 252.36 252.32 252.28 252.30 252.29 252.18 252.15 252.18 252.01 251.90 251.70 251.45 251.21 250.89 250.67 250.49 250.29 249.91 249.70 249.32 248.90 248.49 248.17 247.89 247.47 246.99 246.58 246.08 245.71 245.49 245.01 244.49 244.15 242.73
